function [Y,Xf,Af] = myNeuralNetworkFunction(X,~,~)
%MYNEURALNETWORKFUNCTION neural network simulation function.
%
% Generated by Neural Network Toolbox function genFunction, 25-Apr-2016 23:44:35.
%
% [Y] = myNeuralNetworkFunction(X,~,~) takes these arguments:
%
%   X = 1xTS cell, 1 inputs over TS timesteps
%   Each X{1,ts} = 66xQ matrix, input #1 at timestep ts.
%
% and returns:
%   Y = 1xTS cell of 1 outputs over TS timesteps.
%   Each Y{1,ts} = 99xQ matrix, output #1 at timestep ts.
%
% where Q is number of samples (or series) and TS is the number of timesteps.

%#ok<*RPMT0>

% ===== NEURAL NETWORK CONSTANTS =====

% Input 1
x1_step1.xoffset = [-194.809818048627;-55.0493334251305;-50.4126585788092;-66.7659706382101;-70.2015513641894;-74.6819652521388;-61.1582023442947;-62.1666329648877;-57.910074656537;-61.3504729414207;-74.1943837308711;-63.502973370838;-68.3497640168602;-2073.95719228195;-564.794115960759;-588.707338688689;-532.907377570439;-581.822628738228;-574.79565914099;-619.687556852208;-625.804948127467;-632.831545920673;-634.883515013238;-601.948227046953;-595.075750399853;-608.04515600357;-2049.49585417644;-788.479709462832;-696.966234359947;-630.284663121713;-700.948354735559;-791.617708178334;-875.81739009242;-738.770824500026;-914.213373502405;-740.689088188396;-709.083713456163;-794.17563469407;-736.073791591678;-4.52609465245823;-1.99231926875876;-1.82810930047392;-1.36966100047693;-1.42989094481065;-1.14434790819305;-1.11402979770072;-0.964210031527095;-0.914096988465131;-46.0757157370272;-15.9913347536761;-16.1508472136561;-15.5015927825758;-13.1706727585333;-13.1871227482049;-11.7728257657672;-10.7627698886042;-11.0408172762632;-37.1031988232165;-12.9616215157633;-15.7432241705237;-13.8647121258435;-13.0747830611784;-12.204694647435;-12.5559195952185;-13.6189819148059;-9.87604214807349];
x1_step1.gain = [0.00590316852916103;0.0176484685642736;0.0167701603670951;0.0165678743893368;0.0157000158970783;0.0138877490512332;0.0166127307869808;0.0161649803284566;0.0151521432824578;0.0164741323025809;0.0137023852410567;0.015150088614266;0.0154132078883213;0.000433774863447308;0.00184677397890316;0.00175139383023785;0.00170003164533776;0.00179633575585547;0.00172197351133462;0.0016935027178572;0.00161363624465365;0.00158183062789676;0.00156780569782327;0.00147169838012108;0.00166825171367035;0.00165460806595504;0.000497988193673982;0.00152834691987226;0.00156811366604741;0.00155097217804775;0.00138543557213057;0.00134606841225642;0.00127559690078431;0.00137002449221501;0.0012822205481645;0.00138884803667395;0.00141374742495493;0.00133340239337032;0.00139491206364102;0.237595314579621;0.654139844097865;0.689758423706239;0.794447033157085;0.874898776759837;0.951542593586484;1.04811930966153;1.03755326237053;1.19179838602406;0.0210940436044202;0.0578049142941768;0.0623991670664516;0.0685236274182079;0.0756343288772895;0.0758950280304077;0.0851730466848252;0.0955492115276294;0.0866266461041474;0.0238526428771124;0.0739434217657214;0.0643001770642413;0.0756515118505354;0.0768056241956421;0.0812690026460143;0.0807257956619208;0.0796064824534889;0.101262867499411];
x1_step1.ymin = -1;

% Layer 1
b1 = [1.0718601048076566;0.15818461064058659;-1.4024175888023702;-1.992649763690346;4.7776654032110111;4.106128156688051;4.3383133546496815;3.0328411472721939;-7.9690844102689971;-5.1147457151397644;1.6304211385518748;2.7427226813516494;3.6681402321446281;3.6525137382729707;-1.4643882634951566;3.6856752338258172;3.4452627332936792;-6.3168122770243693;-2.7768148342352097;-0.40366692652958541;-0.74645658319188757;-0.19495033403123135;-3.3548624545403634;2.1268252909240575;1.6538707453927974;1.2643955186045044;-1.1785667678433378;2.6024375113208791;0.10624979762019283;3.1930739389109184;1.6753909399514413;1.8430877046547574;1.8949600777521995;-2.4344692979904434;0.26400379728230272;-1.364640583796463;-2.7736603102793067;-1.4863528826574055;1.6348391384297007;-2.1750661783226337;2.0127309091117405;5.9706487722964168;-6.1274441458853666;1.2730764465251552;0.30994300254187257;7.3026212255718441;-4.6873585536637696;2.0783257564932249;5.6192342507946185;-3.5331237447391017;2.2987797514449548;3.0325279013014788;-10.405874417522938;-1.7546991284236633;1.8837521261634997;4.1648917500080636;-3.1607998768322392;-2.1304689898939184;-5.5865472227179254;10.227657205418575;4.6360082939307414;1.0091212971055901;-0.39556702738079552;3.5519234185907136;-1.3761886456361641;-0.27082890778148161;-4.8482039982594944;1.739629395887424;-7.4543093354015264;-3.3798277408424244;9.7131610733723956;-1.8665310737416243;5.1231076024347422;-2.0294282825970962;-1.1189148493358967;-2.2915716910694948;0.44848064105055807;-2.3309954664690715;-0.40587364858733221;-2.3357828934259981;1.7990597036245091;-1.8367577748233201;0.6922425327664391;-3.7899461820424256;2.14712238090355];
IW1_1 = [1.7330853441739744 0.083683694670505196 1.9291124143934126 -1.0858548629917539 3.0792699674867396 -4.4428363162876678 1.6806178314322922 0.76416371447294507 -0.46664449418018533 -0.67467274693079182 1.0537979881396962 0.21631808641811273 -1.0206901743808179 3.2274837439709554 -0.35046417651625278 -0.12722862405391397 -0.40664564141030424 0.52938832223526644 -0.42207906624858366 0.077925630604608317 -0.53974283520365018 -0.24048580068253608 -0.36348718626775811 -0.033189256066140864 -0.29238070106265518 0.15478600750516469 0.28509983068515077 0.22042442457029349 0.91990443009185974 -0.67106117717325275 1.8790442043226485 -2.3607940249388153 1.186112600632975 0.56596067595451893 -0.31250083679482943 -0.22088033186619266 0.46575518767228957 0.043755554598025 -0.53972690584652461 -0.49888577870557799 0.010615906766214569 -2.9255395371708497 0.26751311601669875 -0.88587766208289009 0.43918911519129755 -2.3629564056812962 2.1029044452455468 -2.1188355769919291 -1.9255619515526536 0.17215550242157523 0.41018839375310501 0.15118290545443444 0.33296321059704764 -0.059922812385876829 0.33918487167270678 0.033765617238211199 0.45764696684492845 -0.023799679413088162 0.030399571987753365 -1.3409097624526636 0.16241771769690833 -0.31495747940032309 0.11456331585935786 -1.4930001707937175 1.7299069017305393 -1.428101695982644;0.2107349412814038 0.22930620262927884 -1.6857979546959083 -1.324390697408409 3.5130571476071335 0.040891658361144369 -1.2517715680879264 -0.36357922038597495 -1.3282168629688855 0.29391507883327134 -0.62574987535839854 0.19873976964418258 -0.43463007971762163 -2.1627197048049944 1.048190683125807 -2.6312165911836192 -0.82118573553483976 1.2411720350829121 0.3806260861795665 0.14311801532745785 0.22580801732444641 0.013282257032595118 0.001828806564789737 -0.057340821818070639 0.03909190418992451 0.29863436979739755 1.2631986668345931 -0.18580504349743013 -0.61621577826713148 -0.5888514571924256 1.8847501552188293 -0.04442753399943087 -0.8617200010146886 0.020976505709494001 -0.70679331647503396 0.24361277368376877 -0.3153590508180999 0.13880126953746993 -0.18106833356628446 -0.92344267011642955 1.4672442125441794 2.6319205617010466 0.6410387523500507 -1.048439891804493 -0.37039368210328344 0.28428807179489518 3.6287078315686565 2.6813580729568955 1.5980138737304825 -0.22630754708608933 0.15461975985759394 1.2472714540760403 -0.15145931653315067 -1.3686449966343701 -0.44620007929827038 0.63010293609749313 0.3161917869888542 -0.41614506094936926 0.37491520495771857 1.6469123209822072 0.79863036732631532 -0.61455430520712684 -0.75121323565141251 0.10117366462293564 2.4844995726930659 1.8452194857395625;5.1026973845722381 -4.4084657512572987 2.5724559335683792 -1.6865291730541931 1.4102382416912236 -3.5833366699653744 0.015925551778590251 -2.9882552409748793 -0.55136087121718269 -0.54439206191056866 -1.4401791542126088 0.14032584351328747 -2.2956217851658169 -1.6968011328035517 -0.94660606349451626 -0.3571836017074691 -0.84482783970418296 0.62711373884015265 0.27708863139059747 0.39089524016266164 0.17086722000564381 0.3189457722199695 -0.23069315252705416 -0.091922549264769532 -0.11086354331162296 0.027596154236806399 2.8608077042234679 -2.1708996659406918 1.0997617672980695 -1.0231981829805972 0.64404904803557039 -1.9192513958311983 0.31932323975146892 -1.7234698014747367 -0.18284187164647808 -0.29489519317492247 -0.46514846987187286 0.17915489076901006 -0.83489857873338746 4.8538196550414661 -2.2375478499176675 4.8276170400851699 -3.2292949435525582 0.35436836470013694 -1.5530842227908872 2.1634283632758016 -3.1486362892464803 1.6206319422749633 -2.4351073342360285 3.753921196553744 -1.6731691734987044 1.3542333130602513 -0.13672760356808095 -0.12114790466620759 -0.92982305994139247 0.24006353428751004 -0.47134089581177097 2.0586808807127994 -1.5390119121853005 2.220450082654482 -1.5119670309066899 -0.069777640311944264 -0.99214600106321194 0.91204435645102799 -1.8517423803872763 0.57832655655966581;0.38494212632113128 -0.38412172797834843 -0.20904989679485891 0.80294380935854004 -0.087287291453113952 -0.61849715973986008 0.044195703900617771 -0.71906789656200831 0.31100982815672762 -0.14174653582558716 0.063714299622772544 -0.16828523189415689 0.17914303379725524 0.53105182394581096 -0.0077659385624548223 -0.18524995107062511 -0.48819262940737645 0.15790359909302543 -0.63647407376927212 0.069728673957536264 -0.33868460634964997 0.40831032126429484 0.48388289739917451 0.39784175162735513 0.41512294343929035 0.30317050268006451 2.0495457392262835 0.13968396591473131 -0.21961634678561909 0.42135516950845642 0.24265850726043164 -0.04561372023071069 -0.048513823855410608 -0.43686895905256101 0.31634245404436112 -0.31462174164394763 0.33153270280362174 -0.11740193055279768 0.39237225939922055 -6.0964464475223235 2.7059291386247981 0.46519715562980585 1.4251197057052016 -3.171516746036974 2.161702740295929 -2.3658264287312658 2.3751080426827142 -1.6951898696411463 6.521813749064453 -2.928434431647323 2.1801550082493644 -1.3237343233973893 2.9576297675089664 -2.5041999007791418 3.0037979100516772 -2.1787531084861329 2.4902159440048766 -2.6841141811620277 0.024331912440918924 0.44222945001141417 -0.00018438480970450278 -0.94518031681827175 0.51298466387075581 -0.75924608955524198 0.80129665377718662 -0.22588134806013596;-2.9155007697420956 -1.831662662388019 1.0614555615056001 -0.90783458272259476 -0.34157353075718994 -1.228551257021105 -2.5152522939847923 -0.4117210560593299 -1.2205456204771787 -0.15388567574237413 -0.84016417182730907 -0.50864934920520444 -1.0241890376206362 1.4202909287490555 -0.083671069260366632 0.40052647871606523 1.2207545047356796 0.080978193300110662 0.65393184455041919 0.051666792128338891 0.15043552671897159 1.0014333287095087 0.18376930219173959 -0.096336231354913093 0.30362690475145626 0.059085466231042494 0.31945695141429831 -0.74599409654821125 0.6526799777769301 -0.47329399650068821 -0.24581467397231743 -0.67495787213616698 -1.7753523911994791 0.088468347645917461 -0.77387386715930873 -0.21360606629657425 -0.42173186233250159 -0.32931009112032344 -0.56734604736481409 0.77307321276468888 0.88963665559143179 0.77372092085321187 0.40933921601932105 -0.90838245102925474 -1.1205014759269336 0.25925132893716712 -0.85719836886090972 0.6417660147926636 1.9961865447080482 0.44245719584544346 -0.49081733244508269 -0.647526995245716 -0.54326802410716091 -0.92494198018368678 0.1794275117748258 -0.7086116585662614 -0.25022989634699394 -0.0050284900582797795 0.73542966609021165 0.31756162346923755 0.20327682130746508 -0.642124972635158 -0.64818053053921643 0.46280385484954806 -0.29682027331384181 0.79811216814489128;-3.6052704410417005 0.86137289534308725 1.6555411948143324 -1.0198790948912433 -1.73903810023911 0.89470586945618236 -1.2573372242485659 2.6199840575826476 -0.82188846379797231 1.6016640335742451 0.40209309783864089 0.88801249963972551 1.446930255822688 -2.6718468141414426 0.23689907224900153 -0.42313084242436921 -0.57893052207384355 -0.71911743554038332 0.2599245822148385 -0.206321451852232 0.16169179749262105 -0.028892535803194994 0.33724802822989797 -0.17105361646018769 0.25466019326833789 -0.080529427395015479 -1.1794890972311587 0.85866785430820258 0.83812527526153124 -0.25748824942554793 -0.78097204463543046 0.17557060723399312 -0.83502293831677488 1.5338681112953514 -0.53978579294197104 0.9807673238969844 0.23180887732029615 0.52405566059174102 0.75395403584772258 -0.7410638635697131 -0.093885825061172934 -0.63360116444595649 -1.0224739524400148 -1.3760170057814665 2.8787535518358176 -1.1239427006859053 1.2500685488106489 -1.7233482475740478 1.0075899791924048 -0.0097326675968353107 -0.47108124899417769 0.090865963981371173 0.12278892098188292 -0.054403957941327595 0.12308482869459307 -0.49399686546621963 -0.28782040180296597 0.12321518330416163 -0.10939050824442813 -0.2941503714940803 -0.57151958445140327 -0.53009526190625333 1.4506329197765624 -0.38579617673476446 0.43839983891643602 -0.88614866934167069;-2.1964569152611344 2.2852146503581285 -0.6908151924057655 -0.020792024088236417 -0.19400633238562107 -0.20981536668733836 0.57524680135065887 -0.38248076314274643 0.11856133569459773 -0.93961482629173254 0.3270635999091317 0.70329453236347395 -0.49936170541533076 0.39188138351327939 -0.55282693700221985 0.57577407122852031 0.21228977324441864 -0.12705159900849078 -0.015538820038013847 0.46429830118894577 0.35112675392744525 -0.23528298741134376 -0.017862725128517574 -0.57004397737554346 -0.00016193238175364632 0.26706293641111412 -1.6074966305086764 -0.29645895661401911 -0.96532453163455545 -0.4690141079555748 -0.08528479716919482 -0.78980900408001109 -0.14705065147789986 -0.16299843651434343 -0.07573782042377139 -0.4460399159105643 0.15662016330363512 0.41673068293252574 -0.19487216691300091 1.0579937854847214 -2.4295512331257862 0.21700348075541831 -0.22714232740147253 -0.25258620953614941 0.13002423844409666 0.79872204964084514 -0.040280142351485027 -1.4627453144204585 -0.35810326178724261 -2.0320294545325326 -0.56824930763374848 -0.58406460433188157 -0.063282011763240234 -0.11546949253877892 0.44896213374766542 0.30336104511156087 -0.76004857937961434 -0.43382342632276827 -0.38326552915148637 0.012872994838566375 -0.061505227145317302 -0.14745164925686075 0.15871050045866067 0.59156267524565254 0.37975761494816163 -0.68644015906400313;-2.8183258157040827 0.27245619453378411 2.2480376068059749 -2.6236914117582759 0.32696264868678315 -2.7521353698205049 2.8219187662204783 1.2478819085836133 -0.11085279073168128 -1.6672562454435318 -0.99829935466873165 1.3318778662524415 -0.10654344576301955 -0.82219669262617623 -0.66305685081688281 0.64350010608304464 0.23718063339573858 0.53027607876728344 0.061653133031460493 -0.18022645562426445 0.10547046833422839 0.17773297493933829 -0.088828619224294025 0.11749396157064862 0.08024576298890676 0.3065222745832813 0.17810287100507163 0.79129303841969068 1.3950722060182632 -1.5045376696046406 0.028967789373618318 -1.1048573724924 2.1494119264167404 0.96941222918777314 0.088817345910923828 -0.87532390076240418 -0.41965485131758345 0.67078808450415062 -0.017071043048173713 1.7605588026552352 -1.3034496946084602 0.55107309894715295 -1.7472855284082067 2.8781150618710805 -1.6225427676204209 1.1271467078799782 0.78604082610679815 -1.1213834879113767 0.9225323089979367 -0.089817006792690765 0.27855793924951866 -0.94944658553960559 -0.18488458468769911 -0.23745423841051752 0.080123066486951403 -0.11031215355604637 0.28123597569400588 -0.10585569514869206 -0.57852832024451895 -0.3726309110432714 -1.1428467562584819 1.0597814346175463 -0.97224959720364734 0.30782932092907161 0.30888096860326902 -0.76145760133183615;7.6500661288473459 7.4774506758871464 4.512742832955011 0.63762295962941029 -1.649900106392459 -4.6013735135095732 -2.4084834709410412 -0.65766623459957341 0.67675617656953779 1.0630657028804567 0.33516549867627515 -0.29488838827622471 -1.2454060523290997 -0.93101044511171105 -1.157756579463439 0.038233246442012453 0.48758271708503681 -0.19404631182392545 -0.020165070105495127 -0.17556505973977773 -0.088473395703742644 0.12273334293089644 0.086237112912011346 0.26751497779920214 0.2943609879613745 0.22164402052306353 0.0092352945654455582 1.2370391383605852 0.79360828690976259 -0.61892810671560239 -0.56672487496477086 -1.6347409622475824 -0.56398550010949178 0.056772928844458968 1.1609737142156362 0.95306402168037818 0.30519326875367236 0.20727758949843747 -0.39341152760736298 -0.14591804351678467 0.60198583419765483 2.2311366556487986 -0.44376163255486156 0.21449245419486496 -1.4587232913761579 -0.60426653421234 0.58552783262045882 0.081520344581784587 -2.3098805763178616 0.38263545035163449 -0.14114549352080119 0.31348202725684537 -0.3197715576620479 0.036715511047254866 -0.08738182351693799 0.28654411053313639 0.17760961360848135 -0.35724391624331842 0.062544379321486002 0.3335519883290709 -0.14657067348357888 -0.019850860187834392 -0.6554535260224571 -0.52064371478069438 0.41478029366500024 -0.24887063545815877;3.4064588858060589 4.6653927486085154 -2.2529680525189253 0.25316555303622312 -0.56624866774755322 -0.918889690910622 -0.35088898900077164 -1.0785196638132029 0.19734749385909001 1.6814249635506393 0.50850105010565072 1.3993450586998599 0.95376690342337755 -0.84092043224817448 0.56767620508844618 1.0617995316016231 -0.36069701800497711 0.35603993726564592 -0.51993717890856006 -0.15583767609954091 -0.30893524487546109 -0.43233783208653714 -0.40100470709511571 -0.15969335284907579 -0.18867540898283164 -0.3177046818227825 1.3510790476254353 2.0407608252396754 -1.8963832730279016 0.12169215279042042 0.11537357761763171 -0.36839082491450881 0.54034729912317325 -0.45657447867577056 0.032508312137252783 1.2104658664762988 0.15956808190596794 0.89366525747725956 0.54909099999434829 0.27698326940891155 -0.55681504080635458 2.3214146002004088 -1.0419666424609366 1.4979363931901244 0.23781712896272883 0.11265963649401972 0.76071774479192611 0.63086088009437735 -0.6862250787642854 -2.1882727696938651 1.074970406639119 -0.90462183697770404 0.46870806690450972 0.72447225810020643 0.13406563569277238 0.27807198423549101 0.23920427204565739 0.48172222686401761 -0.39456985517823329 0.23700173579856146 -0.50164694101327911 0.62662755086645539 -0.068921309803857467 -0.21824919232198883 0.58386128832328976 0.30005368020125534;-1.9458862653880014 4.9634601594321071 -1.2658530154297671 1.4555685244061196 1.486277288299958 3.3955642192951201 3.6594428504346617 -4.4001819509697944 -1.2292723556219773 -3.1607939411235915 2.0615252882432364 0.22961782204859499 2.5402663550399671 0.88674872713712771 0.61610670299675285 0.32011534482738746 0.2397988315655965 0.10021275345606906 0.25582688126222397 -0.003883553316700187 0.011318114541723516 0.052794016554400622 -0.095615316047195767 0.029577568709161318 0.2649291222500687 0.12916968410260726 -0.92777982708631968 2.543836586242469 -1.0153972335063821 0.58215401199856331 0.49195361987193348 1.5990076940133773 2.233655326185406 -2.5513932836888396 -0.62561544413050174 -1.7692285353562656 0.89025309117701412 0.058686127152180467 1.319908682665911 0.98245426775474254 -1.5600572218361433 -1.9190669061102368 -0.13544081869024668 -0.17473437601345257 -1.0121653746488897 0.5826566267121871 -0.078770655704242035 1.2888170087732735 -0.020593264218025292 -0.4945782542290213 -0.60548217268769644 -0.47884046468525843 0.058685906102894939 -0.17295853253978855 0.079815261614295835 -0.084829688161813646 0.021435702001049731 0.45882922949801763 -0.66712004024864979 -0.86929548929711931 -0.13009624828342617 -0.042113206286365001 -0.64450443939541602 0.52446810193696813 0.016789716033898072 0.74809348546207888;-1.6235497975543685 -2.7617054034736928 0.80653713269649696 1.3486875949137898 2.3079974371263958 1.8598694569906795 0.12299376306969259 -2.3160701005644229 -1.0815151818413626 -1.3917442537897657 -1.4314754187124732 0.37734782366221759 -1.3358888946845655 -2.7084997219703908 -0.34285180691980344 0.19457799120932434 0.45301686084964377 -0.022270614177972367 0.15440559711873836 -0.20957058126547851 -0.30863914451010532 -0.47628480283407099 -0.40019041733776667 -0.14183578875948835 0.019361241902955916 -0.095055667769969696 -1.7914539750130225 -1.8416685359192759 0.094619363442135257 0.20405277618189424 1.1964556991752888 0.65027163657625076 0.40562177788374654 -1.4365862310867197 -0.59090200874896803 -0.86209862573384888 -0.72804957837078488 0.23971507442352896 -0.81655637560726568 -0.78006801486609922 -0.45546719321339985 0.46546847445448575 0.0027249114256186128 -1.8836215492686907 1.5332085574113083 -0.44581582255074259 0.91138902870979355 0.72777630618606792 0.38812449719448144 -0.62960226161860289 0.13652057509577123 -0.074674100969552959 -0.30437083452346697 0.49308070250909919 0.39714064624480899 0.16588780583849638 0.45261123471475617 0.26140173948123691 -0.43886804602228729 0.42962542668234782 -0.11743968245233063 -0.93078244402469457 0.81794140940100901 -0.034346931435909542 0.55127017691615565 0.49360475760248196;2.2448250732113602 -0.2300051170801802 -0.23435614462534199 -0.43051969095416198 -0.29854535994176878 0.66687775432610641 0.59967312314320587 0.94785592575069266 -0.75993890748230453 -1.0840289768081235 -0.66823988529072842 -0.20597924087093245 0.019261543124597474 -0.40395214773282828 0.23800210136719335 -0.17681615263666642 -0.57993213197209503 0.15772643485765198 0.10514629825600341 -0.024188537928884524 0.2542838919407665 -0.17835606707619531 -0.08352327898557084 -0.11051323509375907 0.17031110723859344 -0.096176094409125321 -0.32393412584222764 1.5291100007082943 0.82055783166604024 0.12192197174200103 -0.24817365346887907 0.2801836775717404 1.0152450982750858 -0.21427442889800546 -0.084657380760693624 0.29895210249828025 -0.81097277049032479 -0.50518454957939207 -0.14461677940052456 -0.61062827887313431 -0.54773452761310415 0.12560605102301017 -0.30946748663683499 0.20774487207781814 0.073667301130885821 -0.17033992169597986 -0.35755473676235311 0.76730192452546908 -0.4381495527482015 -0.15773369598855641 0.249458066357478 -0.10118687278282062 0.50277241746731471 0.29627450964709945 -0.35317163306275701 0.48497414720276005 -0.064284881840368555 0.0057528522095751109 -0.17169226378886801 -0.58949782190069444 -0.12907747419348736 -0.026071541981589723 -0.61714585790820187 0.13226229708211387 0.527330506981742 -0.3407513335151634;-4.3408104654107591 0.062126994878008567 -0.7863056441896048 0.471568303766285 0.58342905555079849 1.3561475150124394 0.084428476750006226 1.1299399847418314 -0.67484793853120117 -0.99810202463715725 -1.6739710409274842 -0.87207936386288976 -0.35169257386924668 -0.81521090268567309 -1.1165575088849136 -0.26200884349735193 1.5968235310878225 0.69372201262882349 0.059890039141366855 -0.24854132314920399 -0.22925851506367964 -0.36996374618381567 -0.82442698139017623 -0.54237904959995842 -0.67460213466472574 -0.041244752846538446 -1.5085359358773227 0.13239352183590627 -0.16550918376383819 -0.3485223901109063 0.36450867946472981 0.81541586806630861 0.15074755803055279 0.56611063501402137 -0.34772562411438418 -0.64595107256042539 -0.74649530566341105 -0.48222891425354164 -0.40623883093841906 0.3052629000497904 -1.1791810531042202 1.7529390653281973 -3.8730384996813654 3.6071803044887876 -3.8414606131227798 -0.16396753945056072 -0.68117808528236268 -2.0156373002169712 -0.12673012076701373 -0.72743489726102151 0.49602890530839577 -1.2114159234530537 -0.062284402852776408 -1.2277185090585292 -0.0023025493625970219 0.29761092949635548 -0.2874616915132378 -0.042130207138430575 -0.75742474777499513 0.80618057662359677 -2.3076930154468474 1.9686097662848718 -2.1508339855127918 -0.30158778031142142 -0.1729107490699836 -1.1363904883624873;0.89235323374906816 -1.924741540976967 -2.0137841956889853 3.1209278709867054 -3.1324342212637344 0.39059299807353964 -1.0719748427646694 -0.22925153838249987 0.058778764310691449 -0.41434835612310561 1.1027885512684183 -0.4015723775517962 1.1253859707156788 0.66928753241191796 -1.8779044760444759 -2.9511013645900896 4.9871474095495554 -1.0921782707580387 -0.52340310472485174 -0.33278282572492202 -0.24064737676104508 -0.23540560677021491 -0.25450191909850434 -0.017595792015855205 -0.23655362965047466 0.090563967620298086 0.18283551525372435 -0.44111760420172652 -0.13639888414401694 0.65829719999630254 -1.2826070118075785 0.30803952541833129 -0.66202591861799442 0.011596853223253279 -0.00099772600895853443 -0.30133318904615553 0.48204178089348532 -0.18576403382093956 0.58631087205503729 -1.4829301083236803 0.94281554970465031 1.9028688157559051 2.0674327331473319 -1.7777295910277131 -1.8033910298332816 1.3243640499235227 3.2263322294540773 -0.16024414064320489 -1.0344408668411735 0.63002934667187005 1.8450381340708377 1.9222163511334807 -1.7167085381454299 -2.0397555992576519 0.98342644112054756 2.6647300498675017 0.44070833983318769 -0.37563529790986472 0.30533503163626574 1.6350398020727619 1.3748040631153051 -1.3907722117243484 -1.702667942318455 1.2875319737328195 2.9704977057968032 -0.064062510270775558;-3.1636846901576106 -4.6604293644603265 0.014434072511982376 -0.11440492318038069 3.6607160304143083 3.2282181071559712 1.7846879761480474 0.66058277962032386 -0.35759855194231643 -0.4606876162318192 2.0813907437025265 -0.82414905351766032 1.2746948343341515 0.55297683068273229 1.3827995949782486 0.75711149191447069 0.39197669387423595 -0.37436988655820091 -0.30491496089596276 -0.29635674369013432 -0.032466858968768081 -0.035017795818871725 0.010722079141926036 -0.012982696855083027 -0.038157965326516025 -0.051657973930608288 -1.8914135115636381 -2.3634478948731785 -0.021445330377317943 -0.3359243312903018 1.9275588853491901 1.6609537229302209 1.0865168890056014 0.39848849362969596 -0.047341172658705702 -0.29541182241853153 1.071617694518807 -0.54108092832449084 0.7091984752934366 0.34143098327329885 2.3639129182652314 0.68877992054620008 -1.5283120385910871 -1.3276190732996729 -1.7993623820133418 -1.5199401347185444 -0.56191922630617508 -0.018776405026856777 0.10351023463359409 -0.62937009296671842 -0.63260275897358553 -0.22915564974020133 0.17058170794927482 0.21824271279988949 0.46241026481631448 0.1032174425835765 0.084957517115165734 -0.11647679814679518 0.6708325549061166 -0.18981906215969341 -0.71780762157589906 -0.69754387509997706 -0.80589849999070129 -0.76317199634896959 -0.32055845648763381 0.019445951588657386;-4.0982460162422578 -0.47617463829507312 1.0909648793077344 0.71989865165226352 1.9308103391271547 2.563585778774089 1.9025831927726959 3.1389322174319667 -0.82506002802814737 -0.33480633161171069 -1.9130721253861851 -1.4972451140407286 0.36375080069026644 0.92755518887183841 2.1440587351451246 0.39624998439251469 0.78734757715932124 0.27768610753931022 -0.30159705940278447 -0.41608477567952357 -0.061737961435254403 -0.47911776450134802 -0.099553772396096626 -0.45487445223440842 -0.18402076631600853 -0.036161710048663698 -0.03479652223835298 0.092983978460568106 0.95849843746221064 0.53008757289357844 0.96157050221755858 1.3875707870769893 1.0846048291912997 1.7222486419276715 -0.47169354675147079 -0.26772060309525375 -0.8374917923818147 -0.70993491981389945 0.2378030087054811 -0.22931355931419509 -0.91769404664270993 -1.289093794257085 -1.8238854515792307 -0.95109494387625104 -1.9306247735952977 0.64869984017955906 -1.5800586263141194 0.89901122349469298 0.99598400392448583 -1.1495305800089011 -1.0383927468306162 -0.44264690223957259 -0.43469179015678938 -0.0491840644853399 -0.62661691166232159 0.62938936017617486 -0.40347426585704405 -0.35849625932540907 -0.79303651688901367 -0.86361674619490236 -0.8871194746495803 -0.52971194846759839 -0.82484984906327852 0.56030842605089615 -0.81175371443255295 0.57674908816584891;7.7764812434154562 -1.8755757637904129 -0.7766118291033951 -0.41683536009644145 3.0722964340657328 0.17226258374113032 0.58626267365693729 -0.40019976686758418 0.45940264578426376 0.93067008453551303 1.9453064659528156 1.6027604913595255 0.35185798074406022 -2.5606281164140765 0.059647156203519403 -0.23011792662626687 0.042748645345547641 -0.3611915667307059 -0.17295025915652484 -0.00087229988955834419 -0.14946134185310544 -0.12998407083853492 -0.15423842745661165 -0.21474382737985476 -0.23784521630716041 -0.15131827659422281 3.3326995053380055 -0.98989642228350627 -0.43854906016133627 -0.18525292932849977 1.8078167525151214 -0.044475247828312137 0.43629854069282487 -0.30007614337342259 0.29781579360467519 0.62040375151822125 0.93452417545684452 0.93228112429952048 0.15903663471994059 -2.9732048507719111 0.68200950153418194 1.0846869630871923 0.27123799694030692 -0.45902810130244326 -0.78444953251700833 -0.56489193408788585 0.27855671027464574 -0.19955876391630142 -0.2879816933604013 0.011854235755847337 -0.22002846370612145 0.25032604358540494 0.012450995854466275 0.3823906057262102 -0.10073103306050857 0.13836270131278364 -0.29401349245071257 -0.54057839204204361 0.13557513879797789 0.44408500608167539 0.154567474320779 -0.11580655215077103 -0.39697741983475088 -0.22338959374069461 0.24899262252143281 -0.15848296210474555;0.41157031289249724 2.3277807698805475 0.26516241174178695 3.3946019072495717 -1.0711899251452299 2.3579368769733424 -3.5260301094692101 1.2667021778741812 1.0321143341326509 -1.6028852401621174 -0.8539761201334658 -2.4572454042457359 1.7099890733942811 -1.0561183782785009 -0.6995274557166915 -0.92569502744276355 0.41338370649601786 -0.63034858359064594 0.16641108289148368 -0.38311193760211182 -0.26434538362120585 -0.4725369047543625 -0.63250927695319503 -0.48702697176825638 -0.41701287517365893 -0.080589659141817302 -1.0486377100461868 1.3183820242556175 0.13571043752179326 1.661559117139509 -0.75427451185517225 1.2031355382987687 -2.2248197322677887 0.75355480831978905 0.6437284171129658 -0.89368314293015172 -0.32429466570372578 -1.2275510754807359 0.9413502488969121 -0.99515105178602181 -1.4831323635188913 2.2434274708273931 -0.61422888518888119 -0.56547078648690885 0.020354250796442354 -1.5616677392375662 2.0944271158259986 -1.0224176178967948 -1.2317126652788231 0.36166542237462634 -0.039626215445564578 0.35108567921420086 -0.79808713511181673 0.78743357038132156 -0.72844221082041094 0.4535858535732456 -0.3783591792162716 -0.67352282602432323 -0.30936082249787966 1.053008938006837 0.11648936568343493 -0.45159871511002186 0.54259382287425695 -1.2190381532313344 1.880257881783131 -0.60453375567703227;-2.8095559485685992 -1.1943305283397487 -1.7923911256649543 -0.71716393597155637 1.3802542873092869 -1.7428983649710934 -1.8052585217173476 -2.5815046272265092 -1.4230835205580519 0.097634181204910159 -0.76303074740307164 -1.5811770171480466 -1.8235898478930925 -0.2430185505076706 1.1502315300515742 0.33084994640481241 3.4362249030194332 -1.4303457876038641 0.53161507766581029 -0.4329217061298743 0.008711307300977026 -0.092590783552176786 0.065181914669638893 -0.059856892071878789 -0.27457677527635704 0.064760347482204106 -0.41112681468207019 -0.5282764550431317 -0.56177270461135997 -0.87386416256856037 1.2276163945257847 -0.93856922088408745 -0.97857152662623947 -1.3713663618020808 -0.70155092974485256 0.022141301842481274 -0.15076100959624208 -0.96740721121465245 -1.0615320719070409 -0.74174020943368224 -0.39057892321488341 0.7827824667433233 0.68225492231761375 0.22184750272829543 0.12542917888902333 0.66528218194660904 1.1007319285309856 0.56641361378151289 0.94993049738781232 -1.1456304658591729 -0.10380084776377115 -0.6013096989864507 -1.6524635728919965 1.089029287649967 1.3186238550521516 -1.2241587531031706 -0.095443482936736074 -0.71720926990233536 -0.62555740130632631 0.25812828100004515 0.15238097850961183 -0.37598999599980532 0.65948368565449067 0.70594398053986473 0.2915794687914558 0.21737861159151717;-0.49344667142743587 7.741803720209365 -2.1646674039280587 4.5891768709020555 -2.9799143257992977 2.3818796439223209 -0.33705917698727944 2.3291792662722344 1.5338126900274045 1.4455330367135102 -0.48153184843199298 2.9309173306199905 0.14249970456609906 0.7174699489506281 -0.45630199969927993 0.2482707503020152 -0.025574207880417366 -0.48207314035916549 -0.028636832377450655 0.03637561834633693 -0.087868955993848058 -0.029677459856106012 -0.055959741716016816 0.074858557955699498 -0.0973035540040839 -0.0093370399705657928 -0.32415830923200006 4.1047669114175536 -1.2777449686225599 2.4715647047237423 -1.6955348136465727 1.2880397386859173 -0.19687210718155357 1.4078861650339574 0.83582210774738197 0.83980000219302953 -0.22634055499505878 1.7011480323522365 0.1010010936238372 1.2289198321584778 -2.9391113018315527 -1.8277497996981322 1.3697150799679632 0.040219239204891892 -0.95413375922679633 0.93868264551343505 -0.37168908751682833 -0.69593093491827196 -0.3864355164582397 0.2670025170513341 0.19358083432672618 -0.14490554427926469 -0.09453021785866729 0.19656453335163573 0.21198521208311291 -0.090335319447046397 -0.071054545535473121 0.25801404072287032 -0.88523774360726237 -0.76074780800114084 0.66786249678017007 -0.17097667461118471 -0.34919191013846801 0.5685488730978191 -0.30036957955914018 -0.46770974918545261;-0.15137081308152459 0.069519207548861123 -1.6961419208156656 -1.3175715363383864 0.056825245088579994 2.6278018086155295 0.74637423738420972 -0.41628966975794468 -0.64903172954829835 1.2870265701660282 -1.1250035785513806 -0.45048406165693677 -1.5401173979376324 3.362784971746926 0.57123727968336102 0.37617659867782377 -0.14689856400105838 0.28964818878613829 0.27865072615922121 0.11448778163210978 0.045162643567535382 0.11224360468823766 0.04280649072778725 0.05326775672532244 0.13209818087087841 -0.0081755559899949933 -0.87152936376888157 -0.24427273939036992 -0.86725467898616326 -0.72986654153889829 -0.051806251624838602 1.2148354872279812 0.41899315501059725 -0.24972122285535031 -0.38162674372861749 0.71821674488239529 -0.55182886085291882 -0.24530047671939464 -0.85082989721914615 0.94217353008346238 0.11170337512009507 0.5714269985376208 0.52377022568935327 0.29014427354275213 0.56727993741030014 -0.55822983346455435 0.21818124184572099 -0.8037267107294771 -1.2682556324146179 -0.29020631234955679 0.03399066685145069 -0.01570696293303386 0.14081780080309439 0.035408965761815195 -0.23844650183322863 -0.08182566824281004 0.13269204920860339 0.30684422098230646 -0.097577029063094275 0.41901247005942133 0.14950202881237215 0.28781654572093607 0.30965876165018785 -0.34042790525360417 0.10818720454683015 -0.44371497829255541;1.6663056177025231 2.3231124120684377 1.1303360897615211 3.9076805311573484 0.70546854160126393 2.4279334673708393 1.6136277212800132 -0.56336145842215624 0.019343171491759494 0.47451416692956949 0.52835352175149719 -0.29923615343758247 0.61950114312885651 0.39525654777419578 1.0658695230125219 0.32819752732458696 0.3346285861923316 -0.057461568381736702 -0.02102909379265425 -0.03462658555358198 -0.21943195094960249 0.19542761784700197 0.15401036287061384 -0.071673959182931138 0.17413996208773977 0.06969679235153696 0.77325349068156202 0.62616801890046891 0.66754969930806896 2.0952477831028768 0.044511831310314359 1.2728076628999021 1.3660368834024197 -0.46496953659491247 0.11746611855233026 0.33185172005533403 0.2803163049906609 -0.1775193268056543 0.43002959814467012 -4.1056292343887355 -3.9435750491348589 -2.8630237471965567 -1.9829102816023654 -4.5304114677550711 -1.8552427137048801 -1.3622950559089233 -1.268953358213426 -0.39793168168442916 -0.20212241675271578 -0.22404125593915897 -0.3305691093259478 0.29489404009795761 0.33760868122224508 0.12468343336938137 -0.13530508292909921 0.30482541111171013 -0.15137624220489454 -1.3727353579377375 -1.9504853816322627 -1.2531382653772456 -1.191226393010224 -2.4119037460248882 -1.0146969920706799 -0.73665041865088976 -0.79814486915819916 -0.38245131738703725;-0.67067068186931134 1.6938023526654074 0.72710916550724924 0.97474557744028756 -0.20698636442719653 -0.22856108837442951 0.089815558046589292 -0.32593872625778397 -0.26093584756250349 0.74640731742491095 -0.58760601431920689 0.3073382739257654 -0.44113945808796362 -3.221670541767264 2.7100389427671008 -7.5114673846091353 5.4129585116022003 3.2947569363336644 -3.8216531287139031 1.0625018743126218 -1.1391412424297158 0.14754462887917724 -0.55820578149891464 0.58482797049313273 -0.45219456409664471 0.15925929983984602 -0.21538301843780613 -0.20490781547803821 2.0874063583006173 -0.34607796663783674 -0.75312097169673697 0.61622720716324564 -0.12113762749082402 -0.055348561630951476 -0.29093090206013483 0.47668394509669232 -0.38661819195335118 0.055665195309891682 -0.28103242659349892 0.72056160862744856 -0.37413177643016154 -1.3880105747793703 0.74547479964655283 -0.043146419623213424 -0.65812347624868028 -1.4334522883557164 1.5240828700363449 0.30900555236118238 2.2277140428698119 -0.070033875965367157 0.47507883954981373 3.49408262041245 1.5118047626066691 -2.6199514599838292 -1.9065106939237957 2.5773331756051623 4.6683530151134525 0.62027928145623157 -0.058358492973964608 -0.8687219755058001 1.3448561721390677 -0.018345518578607608 -1.1343603105142197 -2.0971448093498362 2.1033107640038771 1.0590819302023042;-1.7356620544738797 -2.3292178816769784 -2.1532757819818968 3.8484364597295402 0.091762900435419237 -2.9649335114806021 0.88427506321977778 -0.77326958224802234 -1.0173950869438482 -0.16898622973074665 0.22110186248175184 -1.606886230591267 0.64533807281825484 -2.1421620857930792 0.90333609384271008 1.7620318467562306 -2.2711322574943598 0.36776789729359288 0.62518094811216163 0.085484978011910601 0.33800951372177845 0.18648429245959089 0.28113223681238847 0.05764596433201008 0.1567860764122454 -0.021262290330244342 -0.036619423091368938 -1.1487972114209932 -1.3406253628229117 2.1691345858592905 -0.0094157303565857407 -1.6638908115842284 0.73008864648598548 -0.59017124603246218 -0.5997076763932121 -0.047666408003348967 0.027247430586037267 -0.94482950535229215 0.391797984080207 1.2635511522002754 0.55331429260890008 1.710183394250945 1.0629015971598805 -0.19638060368221411 -0.95496811677706284 0.088201970482734926 2.0895222275176426 1.3119995687588657 1.9402577646680916 0.016975786099119063 -0.93594561926130015 -1.4421290382526293 0.59207359242369806 1.2430913323687713 0.042129152203039102 -1.6932788742871618 -0.55243340751660797 1.5128032058865009 0.097600919710523759 0.61544175175791693 0.12319628999134757 0.3759588430845206 -0.10882341636403009 0.08776547924195445 0.54120149080446722 0.70986837377848311;-3.1034003331915345 -0.98810370479606635 -0.55175399180702134 -0.57462222732946777 -1.9372274025977871 -0.57346055687094266 -0.32797895165951213 0.16008690915786533 -1.6052306227225521 -1.2211917593164674 -3.3197552749137813 -1.221353523080464 -2.0318884124320675 0.10463716621492755 0.08635986268003569 0.18564044948949834 0.063926871085971157 -0.063233673064872362 0.1993170625631136 -0.047579927847543536 0.14011700264622878 0.12819369459813726 0.10119188008433365 -0.02736166948702793 0.10060893710708656 -0.037436343333978592 -1.0020608012373222 -0.49414721044299131 -0.51143811647225734 -0.14018494110652022 -0.96610530158152441 -0.26139808346065879 -0.20204733048396745 0.13457834333746904 -0.91356773940048963 -0.68819164896120932 -1.5697780604979261 -0.70455736173470995 -1.1079423373491726 -0.37501226432838441 0.189937007949259 0.5194132287984552 -0.032575897915077853 0.21134849831062461 0.92466029338766531 0.3661882783098736 0.39236673513053583 0.2111660109166498 0.11560785063862324 0.20433033772697184 -0.090083371676234453 -0.092388469913417245 -0.10501392534898357 0.27299451793863017 -0.24638679466958882 -0.032851257506747847 -0.024298641869296721 -0.18470179176716831 0.061763736525126345 0.38880418401234818 -0.055083593158578047 0.075609129927723479 0.43856470116769158 0.32120985178229033 0.21735793376965576 0.21963418123968032;-0.57168910533575168 1.5035498845592887 3.2900133995716492 0.31680774342432177 -0.1394623745093185 0.850048828403282 5.1043093926209977 -1.5895595815526342 6.303101430563304 3.2949018793127611 1.8494473710098176 0.78769536525317152 -1.2561622346125927 2.4025605212544234 -0.60807033335850336 -0.5867630810387946 1.2286650206099854 -1.0692133258917662 -0.78420326104386573 -0.57551933329012617 -0.64995053682415638 -1.1896056294111423 -0.096797896867440295 -0.83430621543572436 -0.38072959435374487 -0.46548862590711459 -0.80899073450458037 0.61734541979371604 1.6989468585491381 0.13903613285069133 0.17541265573320669 0.031089185683183276 3.1283584295158717 -0.94580582106250788 3.3134192142370984 1.8945263839786957 0.7492047912257116 0.29599706693504868 -0.7332375661992856 0.090695359710482981 -0.13106876122372288 -0.80410604815383246 -0.32508776057801614 -0.71392632773390408 2.918358675115484 -0.49426862382036718 0.12925507316083254 -0.10903085416268604 -0.22207976442074698 0.26548529786862585 0.95271806451359098 0.16676610327001976 -0.39330122660783018 -0.74637296380632689 1.0698800585269765 -0.1414274998071551 -0.14159510523077079 -0.66103369171736481 -0.12908851175486641 0.13183258597456352 -0.12369115929316878 -0.50476704429377228 1.3197778821885906 -0.10796553671098477 -0.086700461032691259 -0.13138951823324488;-1.6701836654265039 -2.3280754543767377 1.8165290748638394 -1.0619310153831973 -1.9791267087308346 4.6824766433871545 -1.0064130624249383 2.8738269741718732 4.4013620860647267 -2.9127031967302357 4.4770706154127682 -3.0823922421733863 2.0437308934309328 -0.014851039327288082 -1.3398770816300121 0.084451831154473828 -0.43767599665197371 0.35165335732027592 0.27195634881500041 0.41651010600770683 -0.051092816230411633 0.20048920106512469 -0.31477186278250718 -0.25099603717357283 0.03750077353557528 0.076912156432894466 -1.8105939191917817 -1.8214870393338349 0.85036927318510336 -0.62480446501951625 -1.4503293107624631 2.1648166610538881 -0.89506064470278024 1.8299838809918987 2.6929142009861811 -1.9154383189777733 2.3524493310813961 -1.7906841457623057 1.2698037065170171 -0.58402880851269268 0.30616072077775247 -1.1297252550967327 -1.1177290542261396 -0.15279063584538446 -1.1871504336139169 0.17198211526971269 -0.79878008417921209 -2.2880333725551756 -0.81243748853421816 0.92712136631397712 0.18428032852672763 -0.22069367006219304 -0.15228314887511565 -0.068283615372793829 -0.14605553863488446 -0.51173381139411589 0.47835577773846483 -1.0333815822662009 0.66319900541560539 -0.78657408555678621 -0.6771662428834011 -0.29111137881289012 -0.57102173158957281 -0.09098179229155505 -0.42599170185305113 -1.3744750641514936;-4.0601359607998715 3.7902072431633234 1.255880101981121 -1.3648614413435745 2.6273634845257887 -0.5286606810357154 -2.6164026911627127 -0.060922205526106055 -1.034049695847246 -3.0616749431009409 -1.5888967037813444 -0.34942942382464337 0.39060178303125709 0.78449105267588548 0.67723004410400733 -1.091873490193386 0.90234548382518254 -0.26659483807641593 0.1252387225950225 0.36384213535583015 0.16620309751748788 -0.31409878354569631 0.13138784315872487 -0.21977052629725052 -0.23734200734323571 -0.015700461803447488 -2.12038712053752 0.86802506180313133 0.71889652733565002 -1.0561072421479745 1.576270678578596 0.052297313511375086 -1.5915274717307368 0.33838737873874958 -0.29933420216860057 -1.9622895111071315 -0.66561795200811236 0.015758721656628331 0.52142519430724277 3.4646587101386683 -0.90804642275139469 0.12099997459403955 -1.6233039991197999 2.6745644436723115 0.62159385481443552 0.44678783518296494 2.4115781006828989 1.6434871548645562 -0.28602423678153116 -0.87710796636580046 -0.071537628724512067 0.51450511109394892 -0.71442951683359979 -0.49380928852677469 -0.14468850185892143 0.12033608152056664 -0.25266939155529194 1.4238967694339986 -0.65261653888932547 0.64483652778238421 -0.86349857175125866 1.6932734303712811 0.33984449014147067 0.26224808483321532 1.4791025771124982 0.91970664314234707;-3.2799238327224982 -1.0840253141159351 0.077048047629766969 0.56899343027563887 1.0380216425791193 1.2331753478289471 0.57257758411734683 0.52571164802606662 -1.2257079317265369 0.063722212981829812 -0.49467647319098523 0.38077682445690875 0.15625905390204445 -2.2803036525344127 0.16973871755392858 2.5091446622777052 -0.068369669542536718 -0.82626206665112456 0.23806488915124668 0.055156328368515625 0.31131672922195008 -0.066988262639814403 -0.20849604978880534 0.19822503550041295 -0.075390727709975777 -0.0620355309883261 -3.1223237654551359 -0.36712310363673678 -0.056141828282097406 0.28222539825527693 0.91873177916239379 0.6939359832887767 0.43175862852321822 0.095110683767562654 -0.43288719394051411 0.020584524448695744 -0.12570496488675539 0.2875460578364919 0.19012340147973777 -2.687484767564869 1.9078157224555425 1.9149165896054168 0.34129091895540248 -0.9447624086801919 0.79597442655522299 -1.85192702316473 0.75431333783488763 0.21613686444286212 -1.221046192139831 0.31110015863429386 0.69140674357454313 -0.41090005212799585 0.49091123530197889 1.8201914105548307 0.47000575748387352 0.87921182316629698 -0.062662436972515653 -1.2502988928363992 0.70879734368611513 0.79539631391614729 -0.15079244294121916 -0.55135511246330426 0.83742321532079966 -1.1269667938625714 0.71976101492011235 -0.0067965213717729083;2.2550474178424089 1.7075818643080882 0.3875579352471003 -3.093902316188871 -1.6692194961508495 0.75857143344585221 0.39309298741808674 -0.38151571794551153 -1.5774178399751346 -0.96501505201000726 -0.73999159429629113 -2.0988873570240973 -1.4868188777094344 -0.28275883868347662 -0.74124816083244571 -2.4391561847292662 -2.7438818104570326 0.6667826081189645 -0.76094536096744547 -0.27181610107582388 -0.64943859921365155 -2.7194199466731988 -0.61237994334299228 -2.7218092719002027 -2.3507504578167953 -1.3998774410810868 -1.4872893552949835 2.9889670634708212 0.80398855113678724 -0.87350275865687277 -0.60082102587958108 0.38181828283874614 -0.44806895384350387 0.44734888642061882 -1.040250661610894 -0.43476581510432016 -0.24678382270461802 -1.385891045972593 -0.70402395377985083 2.4537149950312251 0.65685740245091806 -0.84653495502376686 -0.20104486753152384 -0.030515678612176713 -0.98552314953370423 -0.87307970545331559 -0.68626371302445299 -1.414928758741181 5.8461400365769807 3.1267036156626138 2.5594451915795036 0.59072100654557691 -0.61150402684342031 -1.1547181901874835 -1.9380779145573004 -0.16903725568685435 -1.1336257044891782 2.599041118977893 0.73200831367891062 0.0031873775151203933 1.0808437975669103 0.073686544173040422 -1.0651163270427062 -1.2186243556963237 -0.075270723058616193 -1.1991226109611157;-3.0105649770886012 -8.0432596859114511 -1.2871717140486711 -3.7083471202502483 0.16724626972101331 -2.184363815974911 -0.64563340830914429 -1.6748162082718718 0.23805397180779211 -0.11777437980809101 1.6475337557144532 -0.75186842052039948 -0.61944239825989178 1.3564368525080475 -0.15015041071327959 0.18370261596091494 -0.23406149276249213 -0.42573947669661943 -0.074807385356766357 0.020594533464406831 0.0053684092824158192 0.19695932876542405 0.099308505780306394 0.1438053974609258 0.050726329334625696 -0.053517139880966624 -1.3878771151816127 -3.9376468753579585 -0.53484008762725233 -1.8807048755767459 0.20923746368238708 -1.0629812871233311 -0.22524957884544367 -0.95026473160625236 0.19148879117234507 -0.13667706122454604 0.90306545162799079 -0.49022960310083347 -0.2875697975405444 -0.80806942151111227 1.9474468156831659 1.8163274019394453 0.33033338601321804 0.17587526375226079 0.035456988842333829 0.46015153455712748 -0.18696455612536897 -0.19826879923548998 -1.0613483536697967 -0.49160543557240766 -0.29467207314183652 0.091146584046846377 0.025793287327684999 0.17219959226701756 0.00047828111314420245 -0.29595226929043256 -0.23266510148753947 -1.0458958558344491 0.65309870725715413 0.62995189236987326 0.04577833774857841 0.18796859702035115 0.042171246203945967 0.3177008647864023 -0.36497975093543183 -0.14796705603490279;-3.9893659081115489 1.3089983093586066 2.6205837723482701 -0.018162559428716717 -0.32522618941407433 -1.2127410219138612 0.036415022166108472 0.64871335441679312 -1.5767047718562661 -0.25431075331284742 -0.45305387891819571 0.59438648788139348 0.87732770575897667 -0.063372470618578217 -0.40962996809441382 0.45483511252617165 -0.49467100271079301 -0.043000850732081979 -0.034664657071353251 -0.065228187196114937 -0.028515468275612032 0.012353170621260593 -0.1463473918582924 -0.0074718347985407284 0.0023117763735140788 0.069754987044711156 -1.3004701652498107 1.1144708187931645 1.5128007978760167 0.070671136382751409 -0.10813681802229806 -0.42605278249522588 0.19452130044837992 0.42633923852765154 -0.76599847147363009 -0.034133233891242669 -0.24940370194879127 0.29807520739757576 0.49146504725053142 -0.59284575418266183 0.028071655034808921 -1.9834962461864287 -0.98013133487387216 -0.4465547691566395 0.028147903858414373 -0.17530959810537414 0.034708471912216751 0.068864049068311894 -0.57385134455213027 0.65888497622964193 -0.00770297680332146 0.0081688159562417414 -0.12221586042286545 0.32732306430797148 -0.14968993185134633 0.32145975434576735 -0.085840104558162766 -0.68958173492624131 0.089751697380987594 -0.92390965920838852 -0.56276382487367294 -0.3274547582921728 0.095995938845912177 -0.21506813467001484 0.10298278165520394 -0.081501483584419526;1.2660864181076836 -1.8672070041258808 -3.9369063101633897 2.836916618646022 1.8757148791768037 -1.2023752753191204 1.938631125824581 -0.87340368147702563 0.34289957238542784 -1.1019663311700953 0.81320807197950196 -1.4186431414158214 1.0733672983973288 0.84293624609777706 -0.26459471621747194 -0.29162903663144496 0.92959222268133423 -0.84857369671610539 -0.10573159948794732 0.24716776391536266 0.037771467149030256 0.28006472520790854 0.1162558867744206 -0.14905105799590751 -0.1152030122230437 0.053196807216608223 0.57861191977040016 -0.86990729132626488 -1.7453768431864665 1.3495714248889772 1.3105207126283986 -0.39604039115486145 1.1824383458931507 -0.53609509085254747 0.28194519235219301 -0.67790307679268003 0.46128267327593941 -0.70862200531122943 0.63801356943386345 -1.7096999708767495 -0.25368293634122685 0.80369884274551051 -0.014137315671654355 -1.8523440646360738 -2.1632052035720184 0.93509665044025891 0.60290160553563243 -1.1960507085304812 -0.17015921393379022 -0.26843816942800935 0.3495862754850127 -0.1907284797554549 -0.25662327709642513 -0.0049532517925801956 0.3361889137157934 -0.54208339245219306 -0.54737080150004125 -1.0971799734269274 -0.2811537438246452 0.30793426754122799 -0.084775161400309551 -1.0835667193809597 -1.2189412026079494 0.68883871196593049 0.04829816125923727 -0.73593403598652063;1.3797588151298756 0.10793633203702556 -2.4241536430467501 2.7130888517115146 1.0046274546082778 8.7591493801372131 -0.17065797653673481 2.0147832294098631 -1.4301222121488397 -1.3023053017247208 -1.2357127637721954 0.28103379517970217 1.219555176821232 -0.96833824747404273 -0.43253686430092875 0.27240037806460782 -0.41879867582575309 0.40467389420321798 0.13771838633090344 -0.34435779933856586 0.42091550550413392 0.21955262852624022 0.26320742283982074 0.55799859117298167 0.27694646895176062 0.13790191634325721 0.94466330645347263 0.28286469527757035 -1.4989099837565203 1.3867854588509134 0.78199616389828785 4.7318713941121828 -0.29797870769289253 1.2355912788363135 -0.79369127398063744 -0.68974909993108857 -0.44583901550344007 0.022933413924498169 0.7158882682361104 0.26409746649211557 -0.94980128486573157 0.54704232386741769 -1.2870579659203911 -3.0508565653635831 -0.97009781228733516 -1.8636141493522029 -1.1746076624370663 1.1928204466425987 1.5363301898849309 1.276010887821319 1.1000566761129986 0.12237299794657006 0.9714467996326267 0.68324154746209054 0.27491614429443806 0.71674052190455817 0.38480337622764726 0.44751532897710083 -0.37312689861336945 0.52659362483673477 -0.66984348922409087 -1.2863759890070257 -1.0962809864268086 -0.79629621260803374 -1.0518121067739179 0.54216166911819696;1.1869843217839244 0.74930321818271761 3.4786956010427135 2.6560990926585326 3.6249507108998595 3.311395780351361 2.9163254521659443 2.2787950425183241 3.2704660745578433 3.164902728274817 3.4425395734973989 2.7371012707789633 1.8009290092212946 0.29389278333893487 0.080432618819350793 0.34027684812444259 -0.046816609924909311 0.027379899066632053 -0.11608718678440678 -0.26101287276420554 -0.038700119464928316 -0.24845294972315046 -0.16395987568522008 -0.29291574958044431 -0.10614440188908786 -0.18313291151038966 1.0800622975866461 0.52853457166917583 1.769649595833217 1.2451246407638075 1.9141213347455981 1.5179051216946502 1.7560540120466388 1.2767185484015127 1.8844215904900927 1.9397336693946026 1.625855940321409 1.5606724887668266 0.95895900151448965 -0.12746052081119447 -0.3119358967085657 -1.589405727352627 -1.7486309193354113 -1.9488045598163 -1.6031410670481743 -0.95352381678769516 -1.2360877157437993 -0.27256859755062357 0.12707954355292936 0.040462453609726862 0.018113694779522418 -0.081038029209591189 -0.070212369502289387 0.090327872545388335 0.19555682431492946 0.25877481459172214 0.06220006293227983 -0.3145803532017078 -0.039882951743867759 -0.77076027632078614 -0.80753144677132116 -0.9875104567298999 -0.7535831998742123 -0.55329471387624352 -0.59204684055473211 -0.05858582590725625;12.460502685238827 -9.4654309000773029 4.7930700291274926 -2.7406000664201784 3.1373724824467604 2.278103954470295 1.415487488233991 0.51387005989218448 0.80100379056145254 0.82402882513789732 0.90350677505237087 0.54969370903412063 1.85185959805536 -1.0964803597650927 1.5131222634323458 -1.117536425537168 0.82257161505503096 -0.17911638924443626 0.22931764913533637 -0.36605685932155618 -0.058073212849046069 0.010701878666461577 -0.064029090472033937 0.15988542582601792 -0.010559364251915154 0.025912572246678232 3.0065659747505462 -4.7402578879932342 1.9578520587741099 -1.8434106927325102 1.6318883333777039 0.60594331348509356 0.78792686832470415 0.26306180280335617 0.19466075602711241 0.55754274679061533 0.28834515512577841 0.44478372237049985 0.86841991715038758 -1.3409485742101561 0.5243665135147898 0.36827852564597008 -0.16039026743304621 -1.8014593546144801 0.64399365726914981 -2.5657978369149501 0.53569307852742776 -0.34528456151273307 -1.1971160448499434 -1.5482105832275137 -0.72370830707190614 0.19895589500038996 -0.22135090552997669 -0.34348258420889427 0.18162551503251728 0.038503896469408723 -0.18417823433694092 -0.28349681641024022 0.41894266093220683 0.17531650710626809 0.018171068291852593 -0.83432802829976704 0.19517057000670399 -1.5325538922664343 0.42102554829284344 -0.30061348731302534;0.67640615189592201 -2.9579030749317594 0.10811272514370845 -4.2774802257789535 1.3941769028612749 -4.4305606459685185 -0.10554009275817909 0.19315687972940015 -0.35083196684890461 -0.67826338948214715 1.1874660443299268 -2.7025764010846984 1.2082189501785925 -1.4041156953254801 1.7173389001905115 -1.9634409883062571 1.8353650529006087 0.86907713613965309 -0.6517451526121395 0.11856159459580196 -0.35070859483696504 -0.033040681097597668 -0.067842713050418627 -0.10395333463281799 -0.030569897636621813 -0.043297565917746084 0.84801895893850943 -1.4467639470477529 0.21034934691225193 -1.9654565107970645 0.70819210458068726 -2.188871347583095 -0.1107300014092287 0.1342933662057548 -0.23166431908040028 -0.45468364241691445 0.59272581680592851 -1.5895278218178832 0.6350571854763184 0.018485193240617117 1.696579387711362 1.4080122804104243 0.27430217804163509 1.3592047956246669 1.8787865655443896 -0.10309000149184454 -0.59377784680368473 2.6119278720478607 1.2602680923736931 -0.75173500620532696 -0.011008121183145772 0.82758153316739969 0.036311357032033732 -1.6271507423012581 -0.17868879758203027 0.70355316165586368 0.697737564432095 0.46262989359518275 0.25082984099465094 0.56934091297592904 0.46178561857724165 0.89197887680646415 0.31822033511833725 -0.30884656157744161 0.009093821800959058 1.7876887542331001;-1.2407839776486265 -0.29025860652246027 -3.4770473429190991 2.8257028278453746 -4.2086627477217444 -2.065256386903263 -2.585878013959543 -2.5876952095383867 -1.3225279261350578 -0.59328851916960235 -1.7611287257637922 -0.68542505651296814 -0.39656378857042024 0.88447485496957245 0.157406200428263 -0.049320240472341938 -0.39358832484629969 0.30872943345656134 0.21276067043308194 -0.095626455919357617 0.027197674195036475 -0.082545922997364948 0.0112783319456757 -0.012707641671141879 -0.047803258277752211 -0.022803568990549063 -0.93176500029711617 -0.3941134107958999 -1.8361632693275993 1.4822447806218058 -2.4274387366565771 -0.98601123791604717 -1.6899912136438577 -1.5187230614847669 -0.79452213231489155 -0.45827638858619946 -0.82013831031251883 -0.36727311369898852 -0.14659735976646812 0.11087853891356161 0.2677831874627592 1.1954980950594487 1.8364108378414228 -0.24616411757895604 2.014534529258547 1.8774685281917671 0.21836582201570193 -0.11164321325103368 -0.48282286131321894 -0.32842425603071573 -0.39154967827060566 -0.079861508937295309 0.050285652343611049 -0.26225084137443438 -0.5178951600391325 0.17113330062799231 0.22679744217999309 -0.069204733048922357 0.10587468193177937 0.56202464278302255 0.87065760638260037 -0.24752875444782441 1.0646282220835199 0.86848871757412938 0.17752254596380773 0.13185969470689382;0.0062048790258758656 1.4932936196919877 -0.92991203136530098 0.24477652968385558 -1.1339359766976462 -4.2950513168771929 -0.66990882077491865 -2.1307763097560937 -1.334100063308578 -0.62593535806459832 0.090443833346201347 0.63154927822299822 -0.41440321621227372 -0.3239530042550684 -0.74207381831658248 2.0525102534484798 0.69608268956805197 0.47788672565039902 1.0399850209082555 0.51626658768290035 0.24435578183828563 0.60954095118163054 -0.2450909243640633 0.075385214257843919 -0.19942424674487588 0.069917846463432035 -1.3626157801552863 -0.7880244110782616 0.60979943194502861 0.030843455023158411 -0.2642812711060219 -1.5853104917253005 -0.40978619449811921 -1.3025128417728502 -0.26627219559511134 -0.45851853046072927 0.10500467953988687 0.30740422311633536 -0.41890794997285541 -0.52493742284814582 -0.21423158360660663 -1.0450076149196563 0.72531538768495263 0.35463918677474626 0.82843493122332801 1.0849034928690175 1.6559768327331901 1.0147441097326881 0.15652700140179771 0.5969577092277939 0.6115281486876244 -0.93539000974574305 -0.2460039546813009 0.42702799744379927 -0.086488684237113672 -0.70395332362843743 -0.068680203982018614 -2.3572617895054164 -0.71595118831598237 1.1540497680194275 -0.59010862895089611 0.027502585629475777 0.17342814522674124 1.0344472335027759 -0.090335455575668619 0.2213551672052258;-10.728903094839417 -4.5345072892530656 8.3586797624716471 5.8714995857769745 2.1775922020652256 -6.3998460093920695 1.0851166685082403 1.0797675214233577 -0.027469721794424799 0.19284116420585334 3.6669377044747256 1.0537685437464268 2.767139557266844 2.0967840577483394 0.99379347005097363 -0.47951769017739465 -1.5611316022287955 0.088715578862852806 0.06903718688285522 0.16284815249508819 -0.55642338409607062 0.43930063104856437 -0.17715049125924257 0.048059781407686603 -0.15588943039065661 0.35255492072499595 -1.8019877749872799 -1.8573872111744416 3.9768689458557831 2.4451074184879529 2.2477989756346788 -2.7180601378867437 -0.23721570848369272 0.94093246127723096 -0.16933576544706608 0.33126302203493269 1.866663693238036 0.55821824756466387 1.402027371251015 0.046491868273296308 0.079061036699466222 0.98730553758126172 -1.7292555274567938 0.69592065789791802 -0.26214344746034218 0.45573189136885017 2.0229261030729049 0.14403810983099777 2.3870725483668407 0.42413256578200054 -0.32971802309565712 0.128547492367306 -0.47021053111071143 0.75266475982668857 -0.47864572441599479 -0.3787893976670797 -1.3377878460718378 -1.4020147526987172 0.35562278469103686 0.42351633607597794 -0.51212738598932162 0.30270209632746298 0.08229493129304416 -0.33996457247948325 1.3733286456756166 0.36701684309129157;-7.9301379924696374 0.033104017327904543 -0.2792736732066225 -2.8781854363281223 -1.1039451333913894 -4.4737180887257679 -1.5668951882374849 -2.2490912447692351 -1.4701382222301858 0.013076170334186439 -1.8741569241477234 -1.2447754254576513 -2.4011873835150417 1.2971390815678352 0.40558234725348341 0.17933137209567823 0.41866267908611804 -0.06430470465122437 0.3951977610420182 0.037183439880486467 0.24043948686470309 0.31841700284364222 0.18492244890316031 0.14147839407692209 0.24861163982730272 0.15892056394914597 -4.6639908890110258 -0.17681969313635396 -0.14019473822735259 -1.5721106935506555 -0.56354793327231278 -2.3788486568711162 -0.9797202816491184 -1.2501212144792528 -0.74643558398116872 0.098167392549757967 -0.86929420752690534 -0.62216692738969415 -1.2297901420586772 1.5856536862763235 0.11932572640050322 -0.26341483821771722 0.18944129635614521 1.3080711724486878 0.70684084783814249 0.62726285325286346 1.2593402510569454 0.60190270816664904 -0.46097236405428132 -0.51628507011084013 0.046790608397229337 -0.058472836754314902 -0.40348884108556626 -0.075278841212674696 0.059192249038109025 -0.14341988872124634 -0.10239565370797059 0.49080446359070501 -0.021129417500299733 -0.16142721755170178 0.0079645011070935239 0.62679370815711866 0.2994311721237265 0.30125317594056361 0.83578936710447926 0.19691921516440053;15.527023746409993 6.4296674044774562 3.153747181781354 1.4904533202404082 1.2917344714888002 0.89370259008236852 -1.7705021225421269 -2.5674618405542371 -1.1966518204102299 -2.4537907850585756 -1.8321082269353686 -1.4339814095706038 -1.0768243302251157 -0.3814052358147112 -1.3108936351080038 -0.29418153598311897 -0.12342591252680774 -0.74149304337789346 -0.35582279010708184 0.069201417753001704 0.23442293297982583 0.46364936791693945 0.43026063563492978 0.4998070833947742 0.80312966868995239 0.23106809123453814 -0.13533658163351867 0.4730004819827926 -0.19735115792122224 -0.55844321286832921 -0.22237265843918663 0.34182720241777131 -1.212964221551907 -1.5646368223350253 -0.29816577216313306 -1.4184279535396123 -0.64394030008200653 -0.7973966315364559 -0.26531203990322039 0.52026282271390822 3.6585340770118733 2.2297584195561937 1.3504644496716549 0.64778783176879817 0.4567036006388383 0.94342767926217141 0.67819378658221152 -0.19712422592771339 -2.3019266446968034 -1.8691313737823467 -0.27991161914015739 -0.36441888925530974 0.56128232735564731 0.49248745898556473 -0.43520333129027072 0.43886496257230001 -0.49499644764962653 1.4953588081390203 0.2592278892122245 0.99590627910291651 -0.11138805026582049 0.50491394801169143 0.083404757337488464 0.71521064788804189 0.045470453482195902 0.15606371075002559;-0.20094454122706837 0.29499248473766476 0.4128388367851577 -0.011661648959223432 0.7615893631132864 0.031877925258493915 0.91279236064266611 -1.8608916636066846 -0.18798530680303097 -2.578222233009499 -1.4729728646666231 -3.775891798357434 -2.0160521793394159 0.63229419941798115 -0.11487205019517495 -0.32161407019662508 0.38127183856232505 -0.073538546884782383 0.17394060739966649 -0.052546490063092061 0.078071676726824524 -0.044382410738525606 0.045392842737615874 -0.030118721103919797 0.28576496384140443 0.025146037207017927 -0.42087818150333417 0.089246722139116275 0.0395315408183139 -0.012516611319456127 0.28453039114002437 0.022468379638448884 0.62225478752004593 -1.1384933926223049 -0.079866097185348178 -1.6223099897639668 -0.67988018923148108 -2.1924304985994754 -1.0682402234289976 -0.10122206812747309 -0.27199245813709755 -0.15288093715696227 0.12065467113619394 -0.32741240906306363 0.29836361494702079 0.067592406224749546 0.14887079298661549 -0.15364378406280421 -0.44841660692724078 -0.031873827596197224 0.1119947294647561 0.025706954127320245 -0.044605880899353662 -0.21506146663157008 0.055693214976658578 0.11459979340075148 0.17505026643510499 -0.41542426577159686 -0.3243988463791177 -0.012252484129783449 -0.015235890542326731 -0.19715261384028637 0.087703978498689078 0.18510983055614583 0.013551182389825148 0.0068498238134484871;-1.0587247639193407 1.9925705361052859 -0.88863787357451174 3.7868893016987828 2.006770001417848 3.8123722084232181 -1.726187999966359 1.9304167983447347 -2.1879811825504736 2.4969380399099346 -0.3738630623845357 1.413162270334233 0.82519700211899971 2.3251879649713909 0.41204183511247933 0.43346448123871406 -0.067726281224594467 -0.14431679275163467 0.11446492573929068 0.010667521976875914 0.042255534200992317 -0.20353966239297544 -0.035632111654335254 -0.09964595080421268 -0.1340850363662594 -0.10827940125032939 -0.66200221573571894 1.196918144495408 -0.47892662514551859 1.9951221442554095 1.1217930129690521 1.8488195729173789 -1.2921933582140046 0.97311269722731508 -1.4096432836895498 1.5348120476303042 -0.21201587739487615 0.85866837586472056 0.47591294805258821 -0.14170719179677976 -0.097972533105456366 -0.42282414453066813 -0.3448231658325423 -0.86666824618852389 -0.28813945807201063 0.052001672459883921 -0.21249973385582507 1.2114218594264408 -1.4057832161515236 -0.045175515690721903 -0.24799886524781609 0.056085415304349136 -0.17280271261294614 0.54037647925361565 -0.46932587674634652 0.27419892798264511 -0.4268427820290992 0.11404030800965402 -0.28622841757736456 -0.028309095021586596 -0.20385422317232316 -0.30248750215517334 0.066275316670298762 0.0065384668255326689 0.077633927827739313 0.75635303128302744;-7.2129330313465312 1.4146343751973574 -1.5018215845993188 0.81400904668541896 0.21624745733360937 0.0032510434127681863 0.13587294729343122 -0.68396962853160514 0.67043853445042845 -0.28267594191128198 -0.014370951468548568 -0.11366852815893955 0.29208788212833658 3.7817621969007171 0.29696875384292259 0.76945874955079052 -0.048027936878096575 0.12778500874116661 0.093819434864914467 0.082747849498472026 -0.035825571639006341 -0.1036441427272046 0.11113291967742223 0.18044510755975618 -0.0031601562582069692 -0.098737020434129991 -4.4795505675023808 0.084693309622693877 -0.85028188043000097 0.28011703805820021 -0.057952758456528621 -0.044682553280688909 0.0092073608417988836 -0.50368052488410675 0.30275889609661044 -0.29171357645747131 -0.12249718065516584 -0.18990650484664584 0.12489905729872598 6.4049430698892564 -0.30572894119097527 -0.78599854061553109 0.74467331323479147 -0.1179972668943944 -0.95503799585301552 -0.051534498787414555 0.4754593937097284 -0.58851388068119659 -1.3654290536582239 -0.49892518822782295 -0.37735402032961918 -0.084084974314031391 -0.28144608340641214 0.22322798955763754 -0.13368051963139166 -0.23980733537687177 0.042388016701555203 2.5124868614425742 0.13757043747175096 -0.5296638169957032 0.3299344270958286 -0.15589295324551847 -0.27132606020679506 -0.15182492358741026 0.37225790019151417 -0.46063355599520811;12.990530079988149 5.7831376276443081 3.2555755015049823 3.313436657336216 3.3422608659529178 -0.49776138172783718 1.1313614438956718 0.48316922289664721 2.8416982113080334 0.87358668415228624 -0.026025044565919031 -0.17629252309650209 1.3743307577896522 -1.8585995485594502 1.6555485178573544 -0.5969500734677976 0.24780875888241563 0.43293881311720261 -0.052203933595010348 0.45713024441173894 -0.12444903928916026 0.56839518618697327 0.22082068523854675 -0.1316196406353031 0.22092967134582131 -0.13919559651243546 2.7598328182550245 1.3647843409160652 -0.013774752890838092 0.68253358348836024 1.3123501585069901 -0.88828268073230632 0.31682877044755575 -0.22054333974518817 1.2918529998097588 0.36035104086431574 -0.12225082091436386 -0.3078265139581135 0.63368051993843344 1.8149719778041455 -0.038132307540648558 0.58099496717823385 0.83527192947061557 0.55853848138056528 0.28612927778747832 0.97127949273335679 0.94485846284852315 -0.71041609886886337 3.0930717100292053 -0.19156966069910941 -0.17279338731101412 0.33141622268174981 0.34547276482606071 -0.54896213424098983 0.19396979875489473 -0.31996327800422675 0.3569815733617881 0.9199227013473773 -0.84844836823477965 0.32836165826800873 0.80842094460480096 0.71793586694176681 -0.14279441757355554 0.84710788241914281 0.48066984773345134 -0.70967962428628317;-2.7043990057210894 -1.3765258971949834 0.4224242135070258 -0.072765059302236354 -0.31064759490819654 0.6447969756418882 0.20642819335115881 0.48639650717011351 0.33468427275506002 -0.25329663987062645 0.95671755725164365 0.4857261925069889 -1.2753604972888295 -6.3624866836993323 0.75725060263314981 0.3062395936536344 -0.75527024979969859 0.34297057212416476 0.31211278646562141 0.24345054233160845 -0.036699474891123601 0.22604783109281076 -0.10689477272737304 -0.18977136989490553 0.29811208302013187 -0.2312265933540926 -2.6901730633591474 -1.6010787785615579 -0.0015696669916259358 -0.46832015272938127 -0.095405697920361632 -0.0032312866703782055 0.56868178235299782 0.32977463306242477 0.52795548128620751 -0.14864201048630049 0.34539236760845965 0.24154269688890148 -0.84974146732286171 -1.3591345717384247 0.22897384757815731 0.43360993768345091 -2.3390787386635665 1.7632825192621666 -2.8636721630216306 2.7536106686377497 -3.2340660477619196 1.1129182913886371 -0.11086696837393861 -0.72671097301315868 -1.0166150852817952 -0.6661190020831308 0.87413676776083737 -0.82810673863538298 1.6489212448703181 -1.8367301241109117 0.98457460724115009 0.66781949451678291 -0.32584195226163415 0.22402301547005096 -1.7762583137117356 1.2709570145499403 -2.4053645385967015 1.9507217518871787 -2.801701260944661 0.66724678317247921;-4.8397890079270791 -0.078935089424400973 0.66181479941540389 0.22035962347483054 -0.77421895350519099 -0.52352698928893249 0.58874140994169311 1.8585556048691489 1.7938252554513174 2.2476745075004461 1.3726894470805129 2.0084410357791667 0.2885433477464831 2.2979635119868895 -2.0117433604527486 0.010862580173556723 0.22024955094335735 0.13992940339237805 -0.66764295319563283 -0.77231294707122522 -1.0224234338786486 -1.4178940893718859 -1.1078954279304194 -1.4378153657709842 -1.2874276094623447 -0.66679276362980999 -2.1376021052509233 -0.29433169982930119 0.21589635815620131 -0.33649840986923685 -0.53481347677027202 -0.35162423815595445 0.11331798206645975 0.86855067667141017 0.94679425523149274 1.2896043134190693 0.76049699526865744 1.1080107125038012 0.14402964024879808 1.0494855005047525 0.38009038351192659 1.1767593682829085 0.929776414595749 1.3258747182528619 1.2844906593511223 1.2429686889355809 0.79239426187294781 0.46949682135936938 0.61729556422875076 1.6899917175318553 0.164253928781877 -0.88821505595343531 -1.2467943154869998 -0.34613681935806123 -0.50597992844546225 0.40498279198334119 -0.54818951163639373 -0.34681438390086222 0.22914790999975879 0.82800779642288824 0.36723471948262976 0.5356992542390091 1.1163070454935748 0.9188036681883277 0.84975121579064616 0.36165777551986128;4.7156672966712812 2.4086735673765043 3.0029803759692699 4.0710778790491693 5.6493920817363721 2.4548104824764856 2.5967071526749455 2.4510347425529222 3.4622727109646987 3.3607686053869785 3.3930704084088585 2.7169918514504872 2.0758978562666641 -1.7610084630863794 0.0011470495540990191 0.034883803089065697 -0.12723796863927525 0.064057049890420867 -0.13928091553582919 -0.27187291685093035 -0.13247298507033281 -0.32815277648397295 -0.28321777673968868 -0.25834187095222422 -0.11337222718729457 -0.1062902439214197 3.0209807668420279 1.4263511533132749 1.3592128590212069 2.0696825288133658 3.0367613114549501 1.1104581326061942 1.5542765261982938 1.4140227847956874 1.8756480983237609 2.0742696397054896 1.6336193193406527 1.5158864056580295 1.1184251043695659 -0.9562287346030901 -0.97267346722100678 -1.2579954548029384 -1.5483585807065117 -1.8725797469026546 -2.0301712361637536 -0.69273763268270272 -0.21954596458655568 -0.16938646091866913 1.0271612045225291 0.15628151019051958 0.054313515288452845 -0.11662383697581226 0.21128501630134514 0.076208563607506483 0.22526468978509698 0.18029912758214314 0.23010568639934426 -0.12107560893846218 -0.39723097690372611 -0.72032597724944003 -0.70650213661369776 -0.86953288861250988 -0.96498276142244643 -0.46128151092999437 0.026666996784578383 -0.0064895831992311994;-1.402789773619235 0.91898261049900332 0.91212595156667242 -0.9757226832669148 1.3924085970895455 -1.8090997372968094 0.59772642149970678 -0.13272150789467441 -0.23055291294731833 0.74681783491312581 -0.97860378479775856 -0.19126905988750173 -0.54464738615970909 1.0022036911691872 -3.9010312166579979 -0.32890892521467591 5.0675052574149353 -3.1435157527414566 0.41868677013118094 -0.34577336746415804 0.053700139974462179 -0.23862447412456458 0.053044246998713525 -0.0430985894633725 -0.23589328403000742 -0.050152326049418453 -0.42224459143372517 1.0817480969029767 0.67993117513408452 -1.3267720105052443 1.4554299054911697 -0.99128893418602981 0.54855446552271425 -0.092898557693461267 -0.13982047926491456 0.33740025025037745 -0.40064375960924686 -0.13800308177884094 -0.35866483626806578 0.61462062365336723 0.3771970770416691 0.61899835304168183 -0.068833214093837136 0.095434717748710471 0.17118826372092028 0.49504510382460465 0.20502570454576105 0.75262258365819479 -0.79703511951854955 1.275827409044525 2.4364902483297213 0.9022206659210551 -2.6479798092748785 -1.5156766561039117 2.2742645340955896 2.1902017171727723 -0.93150237322001239 -0.20398861117784295 0.6650361215226418 1.19839247672595 0.34563229710890364 -0.80338040848279069 -0.29076578855952767 0.99643548659968517 1.1758996479254646 0.0097540679990407528;-2.1519828278214499 0.35610089372558101 3.3251891173092831 -5.6205191864221566 -3.3947063519091558 1.8858293952544116 -0.59259927544493174 2.351303857806442 -1.4624344838263095 1.4553175239972538 0.10703241690779347 0.50361303553504566 1.2287329938927218 -1.8092963560748581 1.4744171675186846 -0.13957687237868102 1.0758012459213731 0.011126894442587023 0.31712914999988462 0.091142353495870534 0.036191642495321835 0.39536604102867468 0.12966721371576354 0.079984627462321226 0.17105521539086185 0.02407081659519816 0.31094826750339932 0.68533770643570602 1.8450547493852221 -2.8581371130033131 -1.7309301188082882 0.8243674871978468 -0.24286828083448508 1.4543397561275575 -0.74428715016935765 0.83379604921659622 0.030121993789304354 0.30485775294317852 0.74121057984755145 2.5001607840716558 -0.91108517157701152 1.0460377566058199 -0.34387007583929508 0.62915360640547213 0.76425606589395578 1.3049964772477201 -0.82392853834575008 -1.110367118731632 1.1891283797458951 -0.018339977677054486 -0.7390664065145276 -0.11469383921403004 -0.33801179308450563 -0.48456295374133324 -0.0053161697016213816 -0.45950048750505662 0.061591815655073281 1.7482345447473022 -0.65064431237636489 0.25227413323719128 -0.19451401379474859 0.168743370492803 0.38585759735136499 0.83722338148285558 -0.36225037331663928 -0.74172228366738413;9.5885497903125891 7.5870348971130079 3.7116591209755101 4.1763414517166755 2.3117034497179154 2.2043931574014475 2.5489058877507564 2.8568933850893647 2.7015739399351162 0.65018110082619462 1.9198886663861352 1.1029910552653339 1.2459560506412155 -1.7618090626665548 -1.3599380718839964 -1.1924569242200678 -1.7138058600964166 -1.4918622582460042 -0.50710709609905968 -1.0591304062467795 -0.82411805336730415 -1.154126750178458 -0.81674946122809167 -0.34945740816555659 -0.95480715635798841 -0.38225444420457078 3.8910296764729551 3.3832989689515838 1.4426252505589807 1.9371107198339366 0.75271113027822956 0.4366466071205593 1.5864437273477452 1.8277008531645309 1.3434361848524636 0.29829091186823831 0.94276892292851144 0.52940973365733612 0.76272750585863325 -1.7590332937771984 -0.046819400947112608 -1.0664746829150424 0.10500554186516731 -0.18770590136941157 -0.04842272555443148 -0.20588547635367144 0.58075841140462547 -0.50445071766603888 -6.6176594239157982 -4.7616034476465137 -2.3195435207137622 -1.171115723961083 -1.2494555809856058 -0.83025266201456516 -0.49297159647471539 -0.7895090550470022 -0.086265237413943652 0.78177794688729085 1.2474310706147735 0.41316284322508123 1.0981475072962399 0.59466148196326862 1.0416186361064788 0.27586012555103351 0.96241612429554102 -0.17494656219549948;1.1911206340164917 6.0026462342411673 -0.20897260049589142 1.759035091168123 -0.32058658344019691 -1.4708035291340398 -0.41528271252501009 -1.4962405619007253 -0.19164568690895067 -0.94089268980726981 0.22723141659864438 -1.7412869033012 1.1456413227943207 0.70757177895558909 0.47290527337281296 -0.23245664251789941 -0.38851240580656632 -0.013371537869226907 0.30965983645931844 0.042740323648983065 0.066433718704121139 0.0072568435978670317 0.050274620988113333 0.040315668156156108 0.0080853587095923475 -0.021044078934055927 0.26339266722706522 3.0617207316920481 -0.37265170615953419 1.0001632083241152 -0.16961385573526591 -0.75245347471642587 -0.17514277796615241 -0.84004871685953819 -0.029401369801699766 -0.58382111992933661 0.073064432084773673 -0.9223724805111515 0.65889481022891649 0.80495756867992141 -2.1000209681511741 -1.3750120166509019 0.60983224808789094 0.14270109488977228 0.16417049431577779 0.5086981551173525 0.52238366255103019 0.63396485187607676 0.18093667361072333 -0.24828633243781467 -0.0075452370013767908 0.064157416490990646 0.18795415334248219 -0.13065383589620699 -0.11256075309245804 -0.30130360931089939 -0.07989445057146996 0.5445241889733482 -0.91640926323479199 -0.48557058315974688 0.42438482140290962 0.14651635129330917 -0.0097317987863568892 0.30278302935466128 0.17578973845100609 0.42280398921598178;-3.4921661487982396 -1.5362124225092513 -5.1896060980396834 -1.7157389034595594 -5.619020209402688 -1.6412332583278897 -1.5286128400383141 -1.3270671557302756 -0.44187713654704702 -0.53614649551149107 0.40486878081099859 0.83267611090426163 -0.61924868932190869 0.71050811459009744 0.43602193939590012 -0.0024475458574109614 0.27784171813199771 0.26658619486123802 -0.11626795513505568 0.023449060624771246 -0.02172846203433999 0.11086784435940086 0.098107659069458869 0.09878870725091829 0.037919132536212714 0.037580234871368197 -1.7330895996137909 -0.77694389058425561 -2.5324918611753882 -0.7190631173989015 -3.0670126250419036 -0.57165980691954099 -0.84564645539925543 -0.64553285931688409 -0.16331216497804385 -0.27553660857852214 0.20397583572372008 0.59877539004665425 -0.30158381514764621 1.1157985544683231 0.27248259528615476 2.0003422452848492 2.1513637912056818 1.981837848371808 0.5938283447942555 2.1577568574900754 -0.57432275574521319 0.36643627222753444 -0.082253921891633067 -0.42090890044839785 -0.24637497279142725 -0.23278683301060984 -0.019450758282242842 -0.21160255872215553 -0.087632264517739408 0.082224376896611939 0.14366469768384021 0.33489795598712274 0.054965470252849723 0.79624872510976663 1.0018401472428402 0.89629947984577985 0.22006482861823956 1.1814387459557756 -0.38620783014211607 0.21002574572986107;-3.6688838721302361 3.3541378349589226 0.76759953335314102 -1.154280614963284 1.4808677654318305 1.1462536851444989 0.60525564276871036 1.1334244962534648 0.065647497824865092 0.76341100214807778 1.2538506440534352 0.81525464389055047 1.6368419641041538 1.3738503373760331 0.31959103325920474 -0.11646315745471454 0.56157922410254946 -0.1960374000816929 0.19160552934678937 0.12012523347808919 0.046281405123533369 0.0027010938746761964 -0.17083084346795296 -0.1197960865387208 -0.029505589283316307 -0.05652389827576991 -2.081570432339217 1.8187442064263186 0.31574216130514332 -0.92415414368357041 0.77768093846132835 0.46459351770016238 0.35332506296891247 0.65787091350302118 0.020866993207638289 0.42196411742497436 0.60419526146417102 0.43401110486099476 0.8886008630571961 1.7106840925241589 -1.14822914090985 -1.5486580384991753 -0.3357341443437501 0.16569634480704615 -1.1548213995932326 -0.43212343388871138 -0.38662002703295484 -0.020238177249999725 -0.41048083834956428 -0.48962030996152989 0.030595321072399807 -0.068341856224526223 -0.17009165197110487 0.017670825681506477 0.12813582180690947 -0.16304939986328262 0.078777732523209756 0.63759159642797136 -0.61995378805832391 -0.81013670348259315 -0.1221160573813256 0.14127015690939579 -0.55684488916449504 -0.30472623151923356 -0.30244058385990746 -0.15261770168422539;3.3365681588230354 4.1897967046724531 2.0736714636439881 1.4617441015936934 1.1761486267454875 -0.83207741603708907 1.1635279446562956 0.55853685581892287 -1.5983217552640101 0.42555196134311513 -1.587194646291471 -2.1332436831108921 -2.3149893668393697 -1.7879999117491578 -2.0084239087892897 -0.16138736072927767 -0.32697953876808056 -0.13446601723470716 0.1096374935826189 0.048982981634192874 0.0045768872682509978 -0.20035572802586707 -0.29624086587852261 -0.51670403136163079 -0.49294688407675991 -0.066399297122751597 -0.2977170108216689 1.2389525816875688 0.11656680145334468 0.26847492684819912 0.31224701634576213 -0.43313113140161835 0.62013268907737096 0.3737503443673067 -0.89143541090314082 0.3438651164999621 -0.5467511608101604 -0.98822721293348781 -0.95741307094386607 1.8032724925037846 1.4932992405425982 1.0040322577945249 -0.074504974327547047 0.54752500936736781 0.5807240166053691 0.15086285517906539 1.1829866513381755 -0.21830940399275023 1.0670221036045018 1.9205252532039221 0.83741902743022423 -0.22062101656724994 -0.27481973108168994 0.31252073800933294 -0.19790758795363478 0.06924452852391802 -0.51751328338452229 0.53054800841116245 1.1073775768953593 0.5401523927458689 0.094601463997732935 0.096333250606065665 0.59278270521857435 -0.081999097814972582 0.82480306883674526 -0.24115842170785176;-3.1056935989174681 2.211121678120231 -0.97023666829238642 0.6018098663022734 0.1987861141771389 0.82998240490421937 -0.41219657299949164 0.2637230946382893 -0.46867835316954748 0.12541924980569033 -0.75398054432193551 0.74628946661623075 -0.42660435367246019 -0.21725075557117235 1.4974324456977828 -0.035961632959062663 -2.4497091319044086 1.3007541588032849 0.010933152098049476 0.68823082215454146 -0.064804513050213591 0.30929372766992985 -0.34868322259295303 -0.49156356781263721 -0.2573626057349192 -0.11762897366460298 0.26681975774388778 0.20423023332879028 -0.33287206368042266 0.37805097916421204 0.25100439788783979 1.1550653161906157 0.042902133549525864 0.46651132908106724 0.021336783992579534 -0.020517888000737814 -0.4450555727589417 0.33447766702750331 -0.11987943860259845 -9.7736965995722294 7.5204831044153719 -1.9542173767988771 -0.3669366340163544 3.2487332002074756 -4.1178241541912008 5.0774024357321794 -5.1186527529872254 3.9808038057068478 -4.1357286104401325 1.6174668793215836 -2.7446877559677576 0.76680722610788432 0.13557227783794848 1.1019819806765518 -1.6961432031284531 -0.65171925929988195 -0.61455799302349579 4.8681183555636451 -3.2232284254351531 2.7106558462006363 -2.4589545647697362 2.4794193306652859 -2.1146002054644937 1.2613590096263114 -2.7751551418624421 1.2318831475453194;5.2688870066311155 0.59730263189425592 -1.1166454708688607 -1.0945246720081263 -0.49725351078622515 -1.9097084227311221 -1.8776118925668692 -0.80324781520279476 -1.1721471088793283 -1.234184085351699 1.1368008228958029 0.1411192868226771 0.78777359502173538 -2.6218732184160993 0.59230586158054066 -0.31757288967978131 -0.41562940356254163 -0.29483243172942214 0.14801005076580334 0.47994244765225613 0.1949291455117578 0.4437725046458797 0.064870432317383708 -0.044230599637616691 0.10529189137917265 -0.18054444004454662 2.7851123831485349 -0.25264941501852811 -0.5013787243455452 -0.54893180239477612 -0.049239387537951193 -0.83678827914710618 -0.94983520637591023 -0.41927433051244817 -0.56030844976619809 -0.76848817594031527 0.49376460750930168 0.13162794560254645 0.39905586839955609 -0.20671404452369257 0.61471064907329331 1.5968960981937812 0.78404697993252148 1.5066907061063455 0.31540488624953256 0.91798688758602576 0.81526711999578994 0.77910499156863822 0.88746772857458189 -0.75143215739049463 -0.26564925320718596 0.14717510039170792 0.28849501243316822 -0.13588373584149868 0.27118032967171202 -0.79956833230161584 0.010695419100294791 0.083832246700290297 0.23501287027902018 0.67743928146247145 0.34155826560266722 0.62561542298811146 -0.10878208387634135 0.408327100475466 0.089061100712211613 0.28466203242923682;-12.274578570639719 -5.571297184333277 -2.3294834532590167 -1.6120741349570327 -0.77692658296334993 -0.23001411455807683 -0.62939768677584229 1.0624922685851068 1.1398045114020807 0.73034552584076495 1.2356524212298063 1.5135012363226088 2.3193944365169759 1.1524929430822632 1.2559679357717088 0.47120034439413139 0.31087898453940505 -0.028026792032987993 0.29007896043320819 -0.067869325311024312 0.21744575281230044 -0.037190526133152553 0.11831674297221692 0.15318483914905881 0.20959913220152732 0.097092312094120684 -1.1846652916213487 -0.34310361193739564 0.44006201248899052 0.17965626916265859 0.23656413619933378 0.30102979379414424 -0.084766178547637697 0.81317744473006559 0.51490645331053242 0.32431953536729086 0.41603787964182909 0.59014451969167847 0.95809302155173526 0.20639233401913221 -0.79696054538045935 -0.22057827423783818 -0.50191201105201344 -0.68444059814770264 -0.53449171376468629 -0.21651699899011292 -0.31980821166456846 0.058825702649602338 -0.54021657377514609 -0.95931087438013285 -0.65336263756088842 -0.21077384936869603 -0.18213972811264029 -0.076133739040498263 -0.15010146209322459 0.071549523082365798 0.22584455442725543 0.20696695355926234 -0.63270814372639961 -0.20311761147132851 -0.25834001554540992 -0.20820127646531045 -0.26870931005542187 -0.0031501122770900051 -0.27386043961580209 0.077196871172194981;-2.5212249251368957 -2.6040919259790654 -0.45002968499738938 2.5575884906271908 0.73563823561919217 1.2384473403141381 0.61481350107717025 0.81094575529882673 0.55163392587379434 0.5268810898888463 -0.14033867244444645 -0.47980506282584368 -0.023117852130456789 -0.52576910887851758 -0.29945585745465791 1.0817467826953608 -1.149343703114545 -0.71832544057511272 -0.68674969559691068 -0.95366503455829155 -1.0696251447202196 0.38913310687801761 -0.44716613337676425 0.26039594513178366 -0.36653358698156291 -0.074891495654961643 -0.86586390413228287 0.40939644192525809 -0.13979503208731567 1.1211653064919955 0.94807962562036163 0.55777651317636257 0.75694276914321124 0.45363551244401151 0.70199804544865085 0.71063634230257666 0.38083560748660428 -0.25499195335958208 0.039169176835420066 -0.070429816025866718 -0.53976985470993011 -1.5302310317707732 0.36735830256933777 1.1015393100342099 -0.98330714733885127 -1.390847466641439 -0.74994178579336446 -0.60172896280791155 1.5037079459357983 -0.19073400370397808 0.89913669502718108 -1.2427806718128618 0.056720428858718565 1.0976485281133284 1.1218961218752774 -0.15011860444453615 1.0057944293979977 0.16821697852110787 0.76757774101302867 -0.31993152418351883 0.68235597326479402 0.5092319695199774 -0.51284991842742422 -0.11586217894823388 -0.076119666607919315 0.43624506786304962;1.1076091539901336 -2.8225677689122168 2.1945388832152264 -1.4755072354356646 1.4812630416713257 0.33047033102268752 0.98145901331227037 -0.44356169018497871 0.65480303517537308 -0.028871771907095754 0.32943186919888851 -0.2162844562487781 -0.29888479058931883 2.9105246686901181 -1.2924755445509131 -0.48941848764972706 -0.29328205514020295 0.19506282349183202 -0.30856652757414532 -0.23086098244895617 -0.045950407212312944 -0.28038073811735115 0.14055781373534834 -0.19867440090159719 -0.1238978652996911 -0.17451749989541157 -0.055126585335223757 -1.0616865342148558 1.3464622042866863 -0.81684228570410444 0.74501910031714824 0.33438522066489607 0.71919574713809464 -0.26371453079122281 0.38736222282398458 0.028797188875503126 0.17866115166864258 -0.11050312300612142 -0.20457181365575866 0.26326956648791594 3.8099793450975303 -1.1552845985784099 -2.7400394246377058 1.1555359955394868 -1.5418080344720986 -2.655569624626033 1.615932818185287 -1.2996989497472955 -0.85756921871290792 0.70862666365627813 0.98160667259789658 0.21532310305274882 0.12081226280737635 0.20071675164819666 -0.14261606376726838 0.45407203685309355 -0.1810226062063312 -0.42172936248694565 1.6102350193082031 -0.53573766998150141 -1.365171695644843 0.61939733984606038 -0.90292616279686522 -1.5860622395863402 0.99462347230603587 -0.57396980794965602;-0.6700752075785158 -0.65881740249063914 4.3437851911549492 -0.96322957099177553 -0.44142993972074113 -4.1938547220593927 0.42245550829184447 -2.6500108156185282 2.096697979401406 -0.31190793346037748 1.4067619161083325 0.73487382547637459 1.138001091182385 0.43969635430613058 0.1216829317995823 0.1099212279586019 -0.55524132934811499 -0.021077456051524696 -0.20194320653539027 -0.21681853522182803 -0.013059331008955677 0.075495331716190217 0.057699883316751563 0.049067517621501251 0.12343755909144098 -0.024124375296613855 -0.41831987765113715 -0.25630072657388531 2.1828471143447929 -0.46443395441282259 -0.019442529958733773 -2.2490913357443079 0.43359475558648908 -1.6870279069546523 1.3599997519046749 -0.31924453969869443 0.67328092237835446 0.37374768186012447 0.68819152563881891 0.29374152179515084 2.1434303844229845 -0.35769124249451856 -0.81239375990674112 0.38035731540156309 1.105432744753023 0.82368794373235565 0.78371181788818189 -0.33212449056823534 0.041995824056287413 -0.013215147470053423 0.29879063147165796 0.15390755823018723 0.38863638402623629 0.11447192189678193 -0.10932118972333846 0.087083860450627548 0.20295538621684459 0.088253500591398207 1.1471766444512406 -0.28692329806758993 -0.23336604901029395 0.30682532028313469 0.70229152779707438 0.52008260091126279 0.61012438846603811 -0.26064448819666269;-4.0862251088137835 -2.3089556558521824 -2.0675462454099711 -2.44319806543202 -1.4530356758828618 -0.92935877414874513 0.012867787667498904 0.010182339585977723 0.48169962733392363 0.13222568145055072 -0.65921160164944537 0.59228043525938812 0.15257698613653609 0.96154885199791418 0.84499199596534491 -0.086621578843202138 0.24717674322700342 0.19608644936872222 0.088678011059442799 0.13098071297863903 0.094109621960887582 0.25244531566815404 0.30994293172304827 0.32435257408541895 0.21115237899270856 0.16560089654561705 -2.2341515419328575 -1.0696588156005626 -0.92712192973508423 -1.1702812986460451 -0.78745616953606001 -0.51298441827769403 0.16964348755751152 -0.10382040353969611 0.37920055157224558 0.041211233316431624 -0.32186350722554602 0.42176644979833694 0.12839842252566314 2.8840209506704526 2.4379648972360632 1.8437059263291837 1.3325166520334404 0.88205107222072643 0.62836945120741738 -0.48749429325742011 -0.082150763237316127 -0.14514629048599842 -0.36037177330450049 -0.047908105077907728 -0.41433630117092013 0.085435756092002685 -0.2219357108879268 0.15994237791919749 -0.15034175224057617 0.027165326762321629 -0.35062454471990612 1.1043102073939224 1.0176786265994826 0.73919748385602002 0.82849175825782306 0.45278437348005962 0.49503660491541168 -0.33883010373747185 0.062996244074318822 -0.15558248031680141;-0.91729428786537692 -1.482891025731645 0.57672695248613082 -1.0604609357455481 0.45677896725773059 0.22384980628809351 0.29392314530208524 0.026785713456654439 0.32449619854681355 -0.66090573452851464 -1.1493979739069355 0.013453322518157897 0.74448726012345501 1.227281016107461 -0.18269153828485121 -0.18940253718843073 1.518264949309343 0.071501827217962832 0.27866190699629723 -0.39491608452724286 0.14264256598740147 0.25259171474100284 -0.019008001916355266 -0.17505652630558768 -0.0059346141513315067 0.02211900623578859 -1.8939651951789269 -0.8263680680157659 -0.22967037195486531 -0.81388500907735251 0.12474000740439158 0.12203198561741205 -0.03430826594607482 -0.13390151954874505 0.38532624707099095 -0.48466721859272532 -0.51403662334132383 0.05973907301214694 0.38340143565311813 -2.6358165977855466 0.94532407681133435 2.370414865405428 -1.9966395836664963 -0.78372771886853365 -0.089069751093277347 0.73179275055216964 1.1145865391839167 0.25017755586980156 -0.50009707344480847 -0.3540237178959722 -0.084448119441885558 -0.60618710989301572 -0.58433895838764327 0.21994862693871295 0.64512274805959191 -0.31527075763819867 0.17881433121676671 -0.79428150541559295 0.34138370632987014 1.4570695043585111 -1.320303501926362 -0.56968301915065378 0.15842033581243331 0.87990148868621043 0.47784834581273072 0.4522125048437502;-1.306474970112784 -7.9735818379630885 2.4894084312211211 -0.82361267287030804 0.89846994216310538 4.7129782788743855 -0.78976900555918972 0.99008658943062611 -1.7464789689954814 0.53337817503695562 -3.5569298256717414 -1.0241452326363731 -1.7460846722446819 0.45107429697286378 -0.49774283570639072 -0.18604840591965618 0.13582203806454721 0.17122305666083598 -0.11309639634687083 -0.072700156978885128 -0.11389621819608706 -0.41621028449430214 -0.21715001986286542 0.029772262919512512 -0.19231844465886769 -0.064530981706383064 -0.4484742770250274 -4.1109670111260073 1.2357547468689167 -0.50225706438124273 0.77114747382515159 1.9874622104994688 -0.61015948871665238 0.26391048902582775 -1.0448794463003277 0.034735916031541032 -1.7409874001528844 -0.78146216124069623 -0.89047392981177975 -1.1490294928834957 1.6316697927378496 2.9433697138467334 -0.10839429478443098 -1.7427538472037516 0.15839839407841599 -0.72119188347796803 0.38203317143211452 -1.247910554309303 0.61731349551805215 0.52185586089945624 0.33869470351128966 0.30306029457692835 -0.082545732117580997 0.42970078391003902 0.045560067410626508 0.2896980907373205 0.077269919143986773 -0.76994283164046717 0.62061314147714364 1.831120154766769 0.021179155023255875 -0.78951629297387715 0.079960702741830772 -0.43765506466595827 0.40574334705491449 -0.59953610774794119;0.15883203375006957 -0.30430403771945524 0.67428842373734355 -0.17498483740139745 0.93273812577607684 0.35557387870099205 1.4951944499944263 0.46852461973571297 0.47559027757122224 1.0809541052559708 -0.087296353518029252 1.0677628601978255 -0.053437991645178581 0.34696359986417902 -0.18013130182908005 -0.37645958841073796 0.057274481138318185 -0.246561049418382 -0.2495016702018695 -0.12587962712219095 -0.2372289303580894 -0.26466865415457708 -0.085789886682198502 0.17664007583164834 0.057750048036421323 -0.47719481028027255 0.75903941492382998 -1.2890399940502764 0.16894339034172562 0.75509013730750318 0.15665006914056698 -0.28246389156807283 0.34640629841174897 0.46282813165386083 -0.88406610017270526 0.052235940196063042 -0.19863497248570919 -0.4226787806533352 -0.087795878247538275 -0.76626171542504629 -0.15220354329003502 -1.2054283622562678 -0.70405431844370292 -0.52158343050795053 -0.41932539941394348 0.036183294305763149 0.54262431062281125 -0.28535570281222128 0.050057121010647167 0.31500150371556401 0.28685617713122852 -0.07316740581747104 -0.14229645750456596 0.2901068503857846 -0.080918435905407315 -0.62143282036172298 -0.11143462546590029 1.2334881284854819 0.83776954625076394 -0.010900157783723085 -0.25959282786196608 0.22072064381331485 0.45845466138703383 0.20718899428580947 -0.43340448998595771 -0.15797401413065212;-1.9854788243299406 2.4732974954328784 -4.0674440699157808 -1.8432609990294295 -3.0736572469502526 -1.963029067297076 -2.8251239226142513 -1.2584099074241408 -2.3068369997308804 -1.6175279708592316 -1.678381664345002 -1.8262951128515492 -0.59210153484280814 0.63700632485462083 -0.66473605410076664 -0.62033282915819532 0.24035238083243091 -0.070589759456430007 0.15108320213968807 0.10973633709940202 0.067824532137541041 0.18285642107188826 0.24076421435712866 0.20726936610365626 -0.017367864723440145 0.027954411820058728 -1.4213728259488045 1.2012179071982605 -2.0169332704690666 -0.80081166640958323 -1.5840944503242937 -0.83722442029317923 -1.7618957947274605 -0.66391966474668973 -1.396758085128472 -1.0310557726951426 -0.77571965703278511 -1.0319049901371569 -0.37196442931252743 1.2775195366575229 -1.6161025041852717 -0.40676697115987936 2.5394656330321319 1.7162951094954557 1.1182936259025249 1.1500911075231184 0.63698276043218471 -0.079866357408163391 -0.52092615448871205 0.091650297870884079 0.43678882542826131 0.27383216360254325 -0.14156292459787959 -0.11681655052851615 -0.26835270734489047 -0.22811305693873418 -0.18199861459733616 0.76834438064908073 -0.65176487450392606 0.109824957846187 1.2201183942768157 0.82893929974642122 0.4807602370173793 0.81907535737471704 0.22332640297747469 -0.023004080499962398;7.8800616699636468 1.2988950294378785 3.5703001608193743 3.5981422865531427 2.0122539192080153 0.71970047125227332 1.3081275618941035 1.9210340806504813 -1.1514289333831318 -2.3711803752933549 -0.016484032321924032 -0.78728630575160896 0.33591400060623605 4.9717697253191533 1.7391874714822488 1.9284330423821914 0.79870117748090119 0.40557556623558966 0.6601668207415643 0.048951387462819906 0.52351996599705852 0.25303578985391167 0.073882059983170295 0.10243942770552136 -0.037704370969266779 -0.21897581618674547 5.1430397685235123 0.60713932484675881 1.4523595287186906 2.1396439593824836 1.4594479316217552 0.6032006965578085 1.0308420129435547 1.1843199172201948 -0.73010943992901178 -1.272733034858595 -0.070626999961432513 -0.34883497797821827 0.063944530558937063 2.5285324141275498 -1.9083449528503205 1.6967722918879666 -2.0819170324183331 0.42830420416813719 -0.79242441920639572 1.2853757326787474 0.53815315436044553 0.45948310518443297 1.5162588245117508 -0.64082319166530211 0.12902454197364813 -0.64877963065411504 0.18167161908056423 0.20415630436217216 0.16943937848403928 -0.38033969856831673 -0.18142852484742339 1.2068392810216084 -1.3612687140761681 0.80281635353045711 -1.1740832326605914 0.21286450039855154 -0.64991720192405744 0.66460831936061515 0.19129414012802617 0.15311010590489679;2.0427195330731398 1.5117772586657696 0.13133246575086949 0.8028684302587541 0.5213192696895862 -0.47450577761011137 -0.36650305080795442 0.27279166042294534 -0.48724640675366299 0.33521462357207499 -0.17575745563382139 -0.36386696983343958 -0.2104542489197975 -0.030293499177392394 1.21915384516738 0.48811693554657676 0.37742724654826165 0.04267382667231117 -0.46336367277797408 0.020311588319175566 -0.38894338241785525 -0.37161605541817405 -0.40789373488809372 0.17402730466544805 -0.26092199390241844 -0.54382038567643798 -1.6243071824568986 1.3128001489365857 0.17070044284842442 0.97434675247675262 0.50565041547619316 -0.9560165208068363 0.36816183132233093 -0.088240007227082112 -0.061398866464918503 0.17960791307391502 -0.16384350196433642 -0.065817426657029554 -0.41397128883211159 0.34483744097584601 -1.4155519505143281 -0.26774383658433565 0.19748767863671052 0.033367440638599352 0.65367097865659862 0.18066530809684708 0.33567733039490216 -0.029637914479096833 -0.68062021202539735 -0.53569030081903724 -1.138265447364502 0.24477655836483983 -0.16314128778075954 0.36011477815510812 0.069489076082939638 0.45405705686572034 0.013727463093130218 3.2972131823877584 1.0017637990724884 0.32371638310937495 0.70698073581336107 0.62054771955024368 0.44983808930339397 0.052757710895684068 0.85049082825769329 -0.29058383092390944;-10.271629046327497 -0.12345317135439178 -2.3460695250880166 -2.1723500461700156 -4.8736254144244162 -4.6047522225043807 -4.2190183925557259 -2.241458416066302 -1.9911090056925842 -1.2556799696734593 -0.54802580192170447 -0.59396041096534113 -1.3798530854027409 1.5918103219475244 -0.36450491923064338 0.40509271504234928 0.20707309409080873 0.34696559207773614 0.18602816619111251 0.068243591903638379 0.063780994931824611 -0.10009885867821419 -0.093461055716792779 0.1098286957064832 0.10177191038762465 -0.0057433896192407349 -5.36978705329477 0.12543658618673986 -1.2014829963730251 -1.0841310050893693 -2.5173810206763934 -2.1064553088893652 -2.8000704132680405 -1.2029361766753022 -1.1443340053848001 -0.77808823811342931 -0.27016313169502482 -0.27458899428009342 -0.74053532468521688 3.4863324765478221 0.64161376550154181 1.0522260065901949 2.0832269000835497 2.7414903296688982 2.253776770891573 2.6564156524185862 1.4058006425061125 1.0771102931207415 -0.058262506362348622 0.19627931824587447 0.15762656306833625 -0.32802519042093764 -0.29181648530054627 -0.13008908927491336 -0.037229272619064349 -0.038042926266107266 0.052327672914305824 0.73297754584897779 0.049672410682771062 0.26715284606982376 0.76674048599049982 1.2943069433673169 0.97616133671519667 1.5071914483265638 0.67888618421241587 0.57041000081053794;0.14286534181026986 -1.469400951703786 -2.7202686792076998 -4.6574429720667538 -1.1557380849409984 -0.58412424113482042 2.9582450183280904 0.34094210502151279 2.4124651628899501 -0.67706472148332975 -1.3645162503285644 0.29512284851925363 -0.38040767686991067 0.44686339103834138 -1.0482771837375873 